{
  "type": "LSTM",
  "options": {
    "inputSize": 31,
    "inputRange": 31,
    "hiddenSizes": [
      20,
      20
    ],
    "outputSize": 31,
    "learningRate": 0.01,
    "decayRate": 0.999,
    "smoothEps": 1e-8,
    "regc": 0.000001,
    "clipval": 5,
    "json": null,
    "dataFormatter": {
      "values": [
        "buy me a laptop",
        "code",
        "computer",
        "drive",
        "hardware",
        "i broke my pc",
        "i found some bugs in the code",
        "i love computers",
        "i love to play games",
        "i need a new power supply",
        "i swapped the memory",
        "i tested the code",
        "it needs more memory",
        "my unit test failed",
        "power supply",
        "program",
        "programming",
        "software",
        "the drive has a 2TB capacity",
        "tried the program, but it was buggy",
        "unit-tests"
      ],
      "indexTable": {
        "2": 23,
        "b": 0,
        "u": 1,
        "y": 2,
        " ": 3,
        "m": 4,
        "e": 5,
        "a": 6,
        "l": 7,
        "p": 8,
        "t": 9,
        "o": 10,
        "c": 11,
        "d": 12,
        "r": 13,
        "i": 14,
        "v": 15,
        "h": 16,
        "w": 17,
        "k": 18,
        "f": 19,
        "n": 20,
        "s": 21,
        "g": 22,
        "T": 24,
        "B": 25,
        ",": 26,
        "-": 27,
        "stop-input": 28,
        "start-output": 29,
        "unrecognized": 30
      },
      "characterTable": {
        "0": "b",
        "1": "u",
        "2": "y",
        "3": " ",
        "4": "m",
        "5": "e",
        "6": "a",
        "7": "l",
        "8": "p",
        "9": "t",
        "10": "o",
        "11": "c",
        "12": "d",
        "13": "r",
        "14": "i",
        "15": "v",
        "16": "h",
        "17": "w",
        "18": "k",
        "19": "f",
        "20": "n",
        "21": "s",
        "22": "g",
        "23": "2",
        "24": "T",
        "25": "B",
        "26": ",",
        "27": "-",
        "28": "stop-input",
        "29": "start-output",
        "30": "unrecognized"
      },
      "characters": [
        "b",
        "u",
        "y",
        " ",
        "m",
        "e",
        "a",
        "l",
        "p",
        "t",
        "o",
        "c",
        "d",
        "r",
        "i",
        "v",
        "h",
        "w",
        "k",
        "f",
        "n",
        "s",
        "g",
        "2",
        "T",
        "B",
        ",",
        "-",
        "stop-input",
        "start-output",
        "unrecognized"
      ]
    }
  },
  "input": {
    "rows": 32,
    "columns": 31,
    "weights": {
      "0": -0.8319675922393799,
      "1": 0.09911368787288666,
      "2": 2.3780131340026855,
      "3": -1.7871747016906738,
      "4": -0.6499553322792053,
      "5": -0.34767112135887146,
      "6": 2.689462661743164,
      "7": 1.9863392114639282,
      "8": 0.08658129721879959,
      "9": -0.38246867060661316,
      "10": 1.9002271890640259,
      "11": -0.9894390106201172,
      "12": -2.0884182453155518,
      "13": 0.46645766496658325,
      "14": 0.7829495668411255,
      "15": -1.1611108779907227,
      "16": -0.008624913170933723,
      "17": -0.29814890027046204,
      "18": 0.9789090752601624,
      "19": -0.6513896584510803,
      "20": -2.114082098007202,
      "21": 1.2351793050765991,
      "22": 4.038107395172119,
      "23": -1.1291208267211914,
      "24": 0.41182297468185425,
      "25": -0.16780433058738708,
      "26": -1.2000231742858887,
      "27": -0.2034863531589508,
      "28": -0.55870121717453,
      "29": 0.13952849805355072,
      "30": -0.7583412528038025,
      "31": -3.676159143447876,
      "32": 0.8596816062927246,
      "33": 2.0697124004364014,
      "34": 0.3217357099056244,
      "35": -2.8008811473846436,
      "36": -2.206799030303955,
      "37": -1.1373642683029175,
      "38": -0.0831989124417305,
      "39": -2.491860866546631,
      "40": -0.07264726608991623,
      "41": 0.8092672228813171,
      "42": -7.679768085479736,
      "43": 6.46943473815918,
      "44": -5.359043598175049,
      "45": 3.575587272644043,
      "46": 0.847521960735321,
      "47": 1.2667995691299438,
      "48": -3.8073017597198486,
      "49": 1.186919927597046,
      "50": 3.2417311668395996,
      "51": 4.855731964111328,
      "52": -6.152747631072998,
      "53": 0.27014100551605225,
      "54": -0.6018146872520447,
      "55": 1.8022007942199707,
      "56": -1.532668948173523,
      "57": 0.0620390884578228,
      "58": 1.7196669578552246,
      "59": 4.126321792602539,
      "60": 0.2547551691532135,
      "61": 3.487335205078125,
      "62": -1.8122831583023071,
      "63": 2.3957648277282715,
      "64": -1.6672420501708984,
      "65": -1.3408809900283813,
      "66": -1.804160714149475,
      "67": -0.8900371789932251,
      "68": 0.8821188807487488,
      "69": 3.190027952194214,
      "70": -2.222386360168457,
      "71": 0.8035165071487427,
      "72": -1.1495312452316284,
      "73": -0.4430943429470062,
      "74": -1.9936529397964478,
      "75": -1.7438617944717407,
      "76": -2.092796802520752,
      "77": -2.2363810539245605,
      "78": -4.765191078186035,
      "79": -0.17408788204193115,
      "80": -2.6074202060699463,
      "81": -0.2959309220314026,
      "82": 1.4556467533111572,
      "83": 3.8409128189086914,
      "84": 1.4710856676101685,
      "85": -0.19077534973621368,
      "86": 0.4001041054725647,
      "87": -2.0098114013671875,
      "88": 4.025027275085449,
      "89": -2.5965702533721924,
      "90": 0.5077346563339233,
      "91": -0.9851042628288269,
      "92": -4.2761969566345215,
      "93": -1.0767840147018433,
      "94": -1.0326122045516968,
      "95": -4.238384246826172,
      "96": 1.0254555940628052,
      "97": 0.8851196765899658,
      "98": 0.42590445280075073,
      "99": -1.8986963033676147,
      "100": 0.14170177280902863,
      "101": 1.5902037620544434,
      "102": 1.527207374572754,
      "103": 1.0144661664962769,
      "104": 0.4971294701099396,
      "105": -0.5457332730293274,
      "106": 0.6052914261817932,
      "107": 2.2940990924835205,
      "108": 1.3392562866210938,
      "109": 0.999747097492218,
      "110": 6.22539758682251,
      "111": 0.13828980922698975,
      "112": -1.7879796028137207,
      "113": -0.6106199622154236,
      "114": 0.5568624138832092,
      "115": -0.453243613243103,
      "116": -1.073783278465271,
      "117": -0.35498368740081787,
      "118": 0.49258047342300415,
      "119": 0.8258023262023926,
      "120": 0.4542309641838074,
      "121": -0.4880911707878113,
      "122": -4.592352867126465,
      "123": 1.9415658712387085,
      "124": -0.18041807413101196,
      "125": 0.9955815672874451,
      "126": -0.3579239249229431,
      "127": 0.9676498770713806,
      "128": 0.8314748406410217,
      "129": 1.6850438117980957,
      "130": -1.1105754375457764,
      "131": -0.2780897617340088,
      "132": -0.7515126466751099,
      "133": -1.1840696334838867,
      "134": 2.3503506183624268,
      "135": 0.9196487665176392,
      "136": 0.26232364773750305,
      "137": 1.131608486175537,
      "138": 0.3747323155403137,
      "139": 2.1296041011810303,
      "140": -4.605090141296387,
      "141": -0.7663615942001343,
      "142": 0.4040469825267792,
      "143": -1.6104003190994263,
      "144": 1.7750557661056519,
      "145": 1.532119870185852,
      "146": -0.5801047086715698,
      "147": -1.9569562673568726,
      "148": -2.0639867782592773,
      "149": -3.1360068321228027,
      "150": 4.093181610107422,
      "151": 0.9306057691574097,
      "152": -0.865680456161499,
      "153": -1.4717299938201904,
      "154": -1.9698222875595093,
      "155": -0.5534709095954895,
      "156": 0.8931620121002197,
      "157": 0.6838921904563904,
      "158": -1.0948898792266846,
      "159": -3.167663335800171,
      "160": -0.5909183025360107,
      "161": 1.5053305625915527,
      "162": 1.1494907140731812,
      "163": 1.0156961679458618,
      "164": 1.5945088863372803,
      "165": -2.658459186553955,
      "166": -0.321955144405365,
      "167": 0.029072575271129608,
      "168": -2.518463373184204,
      "169": 0.6245978474617004,
      "170": 0.582012414932251,
      "171": -0.41340965032577515,
      "172": -0.2721371352672577,
      "173": -0.8572802543640137,
      "174": -0.8850697875022888,
      "175": -0.3555137515068054,
      "176": 0.7243454456329346,
      "177": 0.7482989430427551,
      "178": 0.40668684244155884,
      "179": -2.4410758018493652,
      "180": -0.8946325182914734,
      "181": 0.5986771583557129,
      "182": -0.31619489192962646,
      "183": 1.2557690143585205,
      "184": 0.26123884320259094,
      "185": 0.6614506244659424,
      "186": 1.8551042079925537,
      "187": 0.008735322393476963,
      "188": -1.3206937313079834,
      "189": -0.7537757158279419,
      "190": 1.7781168222427368,
      "191": 1.633932113647461,
      "192": -1.8798495531082153,
      "193": 0.5755338072776794,
      "194": -0.3239131271839142,
      "195": 0.7357063293457031,
      "196": 1.5397132635116577,
      "197": -0.7035337686538696,
      "198": 0.3799245059490204,
      "199": 1.471113920211792,
      "200": -0.4342796504497528,
      "201": 2.243713855743408,
      "202": -0.8716428279876709,
      "203": 0.6316803097724915,
      "204": 0.3480272591114044,
      "205": 0.2620620131492615,
      "206": -0.06998741626739502,
      "207": -0.9861332178115845,
      "208": -1.289927363395691,
      "209": -2.976276397705078,
      "210": 1.675149917602539,
      "211": -0.3804284632205963,
      "212": -0.9741173386573792,
      "213": 0.5620803833007812,
      "214": -0.2169099897146225,
      "215": -0.9842379093170166,
      "216": -0.7569748163223267,
      "217": 1.0176525115966797,
      "218": 0.2476016730070114,
      "219": 0.10575171560049057,
      "220": 0.543887197971344,
      "221": 0.7307227849960327,
      "222": 0.10651850700378418,
      "223": 0.02226846292614937,
      "224": 0.6185384392738342,
      "225": -2.098311185836792,
      "226": 0.07114951312541962,
      "227": 0.5841797590255737,
      "228": 0.7190107703208923,
      "229": 0.060218703001737595,
      "230": -0.015693994238972664,
      "231": -0.06387823820114136,
      "232": 0.054145343601703644,
      "233": 0.2996475398540497,
      "234": 0.049862928688526154,
      "235": -0.14115990698337555,
      "236": 0.6258631348609924,
      "237": -0.2053700089454651,
      "238": 0.648851215839386,
      "239": 0.163862943649292,
      "240": -0.7560532689094543,
      "241": -2.015407085418701,
      "242": -0.018508095294237137,
      "243": 0.4010673761367798,
      "244": -0.1852746605873108,
      "245": -0.6816142201423645,
      "246": 0.9388981461524963,
      "247": 0.5932228565216064,
      "248": -3.4486162662506104,
      "249": 3.7121901512145996,
      "250": 3.4158177375793457,
      "251": 0.9678930044174194,
      "252": -3.91188645362854,
      "253": 2.4664933681488037,
      "254": 4.857852935791016,
      "255": 2.0770559310913086,
      "256": -0.944989025592804,
      "257": -0.9777852892875671,
      "258": -2.744751453399658,
      "259": -3.7117486000061035,
      "260": -3.7551894187927246,
      "261": -0.8128438591957092,
      "262": -2.2963595390319824,
      "263": -3.2818870544433594,
      "264": 2.190927743911743,
      "265": 3.3247017860412598,
      "266": 0.20505496859550476,
      "267": 0.342151939868927,
      "268": -1.8361968994140625,
      "269": 1.40371835231781,
      "270": 4.23663330078125,
      "271": 0.9655805826187134,
      "272": -1.2941086292266846,
      "273": -1.1367419958114624,
      "274": 3.3651981353759766,
      "275": 3.5604517459869385,
      "276": 0.6289078593254089,
      "277": 0.5386947989463806,
      "278": 3.336982250213623,
      "279": -3.4186415672302246,
      "280": 0.43028777837753296,
      "281": -0.12393882125616074,
      "282": -1.3953663110733032,
      "283": -2.012000799179077,
      "284": 1.5384631156921387,
      "285": 1.5287162065505981,
      "286": 0.39534780383110046,
      "287": 0.9908950924873352,
      "288": -0.8655962347984314,
      "289": -1.3931885957717896,
      "290": -2.8828835487365723,
      "291": 0.7637841701507568,
      "292": -1.3036738634109497,
      "293": -4.010343074798584,
      "294": -0.6435154676437378,
      "295": -1.4577444791793823,
      "296": -0.07402278482913971,
      "297": -0.15402328968048096,
      "298": 1.2099542617797852,
      "299": 1.4013973474502563,
      "300": 2.098945379257202,
      "301": 0.7190313935279846,
      "302": 2.5174882411956787,
      "303": -0.7152538895606995,
      "304": -1.0583328008651733,
      "305": 0.09474161267280579,
      "306": 0.6390591859817505,
      "307": 0.7844141721725464,
      "308": 0.058658666908741,
      "309": 1.5784602165222168,
      "310": -1.5033031702041626,
      "311": 0.5519589185714722,
      "312": 1.0005319118499756,
      "313": 0.516406774520874,
      "314": -1.3085023164749146,
      "315": -0.5253207683563232,
      "316": 0.3109622299671173,
      "317": -0.12174440920352936,
      "318": 0.08519493043422699,
      "319": -0.0045294491574168205,
      "320": -0.20017553865909576,
      "321": 0.09417349845170975,
      "322": -0.26282912492752075,
      "323": 1.146919846534729,
      "324": 0.46389758586883545,
      "325": -0.00493733212351799,
      "326": -0.45001843571662903,
      "327": 0.8476768136024475,
      "328": -2.0165293216705322,
      "329": -0.665463924407959,
      "330": -0.6140194535255432,
      "331": 0.7950432300567627,
      "332": -0.937548041343689,
      "333": 1.0057358741760254,
      "334": -1.1782376766204834,
      "335": 0.2172507792711258,
      "336": 0.512400209903717,
      "337": -0.5594965815544128,
      "338": 1.0442053079605103,
      "339": -0.10861510783433914,
      "340": 0.7539860606193542,
      "341": -2.7525808811187744,
      "342": 0.6862822771072388,
      "343": -1.4814664125442505,
      "344": 0.7783602476119995,
      "345": -0.8120779991149902,
      "346": -1.1103664636611938,
      "347": -0.5580136775970459,
      "348": 0.49703794717788696,
      "349": -0.14666858315467834,
      "350": -3.3228042125701904,
      "351": 0.4324136972427368,
      "352": 0.6268003582954407,
      "353": -0.8413434028625488,
      "354": -0.6592108011245728,
      "355": 1.1305880546569824,
      "356": -1.6927318572998047,
      "357": -1.3911715745925903,
      "358": 1.0424288511276245,
      "359": -0.72176593542099,
      "360": -0.27010616660118103,
      "361": -0.48029568791389465,
      "362": -0.391091912984848,
      "363": 2.2258472442626953,
      "364": -1.1855424642562866,
      "365": -1.411994218826294,
      "366": -0.8176871538162231,
      "367": 0.5663898587226868,
      "368": 0.6025217771530151,
      "369": -1.4032671451568604,
      "370": 0.3078821301460266,
      "371": 1.1150364875793457,
      "372": -6.115675926208496,
      "373": -4.7873077392578125,
      "374": -3.6239945888519287,
      "375": 3.5948448181152344,
      "376": -1.8942253589630127,
      "377": 2.1725833415985107,
      "378": -5.733517169952393,
      "379": 3.056009531021118,
      "380": 1.4000561237335205,
      "381": -2.7424890995025635,
      "382": -2.7855379581451416,
      "383": -4.1142659187316895,
      "384": 0.7774100303649902,
      "385": 2.204164505004883,
      "386": -0.691319465637207,
      "387": 0.16517166793346405,
      "388": 2.981600522994995,
      "389": 4.080874443054199,
      "390": 1.2430486679077148,
      "391": 1.3145430088043213,
      "392": 4.663113117218018,
      "393": 0.04528755694627762,
      "394": -4.466090679168701,
      "395": 7.604121208190918,
      "396": -0.5983238816261292,
      "397": -1.3464981317520142,
      "398": 2.470048666000366,
      "399": -0.5392149090766907,
      "400": 3.646986246109009,
      "401": -4.48268985748291,
      "402": -3.1328532695770264,
      "403": -0.08236464112997055,
      "404": -1.2506588697433472,
      "405": -0.803493320941925,
      "406": -3.959695339202881,
      "407": 0.7981693744659424,
      "408": 2.5144457817077637,
      "409": -0.5936533212661743,
      "410": 1.0596622228622437,
      "411": -0.6735074520111084,
      "412": 2.2078380584716797,
      "413": 1.635737419128418,
      "414": -4.5274529457092285,
      "415": 2.8547024726867676,
      "416": 0.7390568256378174,
      "417": -1.1008894443511963,
      "418": 0.7894301414489746,
      "419": 1.5917524099349976,
      "420": -0.1595601737499237,
      "421": -0.28426340222358704,
      "422": 1.0346847772598267,
      "423": 0.009411458857357502,
      "424": 0.2248588651418686,
      "425": -1.9966270923614502,
      "426": 0.878271222114563,
      "427": 1.859087586402893,
      "428": 0.8936193585395813,
      "429": -0.3749695420265198,
      "430": -1.4343475103378296,
      "431": 3.582010269165039,
      "432": -0.4170701801776886,
      "433": -3.661923408508301,
      "434": -0.3579556345939636,
      "435": 0.2932412326335907,
      "436": -0.37866610288619995,
      "437": -0.8486989140510559,
      "438": -0.36062341928482056,
      "439": -0.038537558168172836,
      "440": 0.15167371928691864,
      "441": -0.10653380304574966,
      "442": 0.4784049689769745,
      "443": -0.052693404257297516,
      "444": -0.3712042570114136,
      "445": -0.23301871120929718,
      "446": -0.08538586646318436,
      "447": 0.09387841075658798,
      "448": -0.8500680923461914,
      "449": -0.41137993335723877,
      "450": -0.23626834154129028,
      "451": -0.11862336844205856,
      "452": 0.5167357921600342,
      "453": 1.2207279205322266,
      "454": 0.5458642244338989,
      "455": 0.502537727355957,
      "456": 1.1680700778961182,
      "457": -0.4053129553794861,
      "458": -0.41861698031425476,
      "459": 0.8967856764793396,
      "460": -1.072649598121643,
      "461": 0.2755666673183441,
      "462": -0.1201527863740921,
      "463": -0.04275256395339966,
      "464": 0.7467171549797058,
      "465": -1.7307648658752441,
      "466": -1.1480094194412231,
      "467": 2.450829029083252,
      "468": -0.9323789477348328,
      "469": -0.5468931198120117,
      "470": -0.6255883574485779,
      "471": 3.6864960193634033,
      "472": 0.621926486492157,
      "473": -2.507277250289917,
      "474": -0.3666483163833618,
      "475": -0.609740138053894,
      "476": -1.0202361345291138,
      "477": 1.2899028062820435,
      "478": -0.29476210474967957,
      "479": -0.21987833082675934,
      "480": -1.4471461772918701,
      "481": -3.549715042114258,
      "482": -2.8458456993103027,
      "483": -1.0038059949874878,
      "484": -4.129437446594238,
      "485": -1.7940025329589844,
      "486": 2.876535177230835,
      "487": 2.097360134124756,
      "488": -1.0236252546310425,
      "489": -0.11009583622217178,
      "490": -1.7516199350357056,
      "491": 3.1743884086608887,
      "492": 0.34191668033599854,
      "493": 0.281089723110199,
      "494": 0.831828773021698,
      "495": -3.9610469341278076,
      "496": -2.360588312149048,
      "497": 2.679469108581543,
      "498": 2.2120871543884277,
      "499": -1.131007432937622,
      "500": -4.7417192459106445,
      "501": -5.591420650482178,
      "502": 2.2861733436584473,
      "503": 2.92828369140625,
      "504": -0.570013701915741,
      "505": -4.525735855102539,
      "506": -3.7504515647888184,
      "507": 1.942855954170227,
      "508": -1.5125842094421387,
      "509": -3.49576473236084,
      "510": 1.3346316814422607,
      "511": -4.034571647644043,
      "512": 0.37234094738960266,
      "513": 2.241722583770752,
      "514": 0.2323996126651764,
      "515": -0.15871034562587738,
      "516": 2.092841386795044,
      "517": -1.6650965213775635,
      "518": 4.055167198181152,
      "519": -2.4093077182769775,
      "520": 2.1495115756988525,
      "521": -0.4090636372566223,
      "522": -0.8545981645584106,
      "523": 3.2241523265838623,
      "524": -3.6386117935180664,
      "525": -0.49060243368148804,
      "526": 3.7299177646636963,
      "527": 0.7835063338279724,
      "528": -0.821650505065918,
      "529": -2.880850315093994,
      "530": -1.4835809469223022,
      "531": -0.32309582829475403,
      "532": 2.4407804012298584,
      "533": 0.4409472942352295,
      "534": -0.15602482855319977,
      "535": 2.8706114292144775,
      "536": 3.1060266494750977,
      "537": -2.6156516075134277,
      "538": -1.063891887664795,
      "539": -2.6359100341796875,
      "540": -0.37137532234191895,
      "541": -2.531752824783325,
      "542": 0.01838861219584942,
      "543": 1.5172228813171387,
      "544": 3.329680919647217,
      "545": 2.570979595184326,
      "546": 2.5461387634277344,
      "547": -0.19476352632045746,
      "548": -0.8205453753471375,
      "549": -1.9551384449005127,
      "550": -0.49023085832595825,
      "551": -0.9804688096046448,
      "552": 2.1830105781555176,
      "553": -1.3312666416168213,
      "554": -1.6491016149520874,
      "555": 1.1257097721099854,
      "556": -2.5469789505004883,
      "557": -1.9891737699508667,
      "558": 1.6231136322021484,
      "559": -2.02142596244812,
      "560": -2.0082380771636963,
      "561": 0.11729755997657776,
      "562": 0.9210701584815979,
      "563": 0.5421828031539917,
      "564": -2.8548166751861572,
      "565": 0.9377246499061584,
      "566": -0.24601560831069946,
      "567": -0.3262390196323395,
      "568": -0.7748146653175354,
      "569": 1.6130167245864868,
      "570": -1.2121567726135254,
      "571": -0.24590978026390076,
      "572": 4.679083824157715,
      "573": 1.084851622581482,
      "574": 1.7659132480621338,
      "575": -0.049738459289073944,
      "576": 0.9863200187683105,
      "577": 1.423822283744812,
      "578": 0.75006502866745,
      "579": -1.514090895652771,
      "580": -0.4929494559764862,
      "581": -0.8051925301551819,
      "582": 1.6544814109802246,
      "583": -0.05197067931294441,
      "584": -3.0352745056152344,
      "585": -0.4593615233898163,
      "586": 0.3722245395183563,
      "587": -0.9184087514877319,
      "588": 0.15003007650375366,
      "589": 3.248873472213745,
      "590": -7.2940521240234375,
      "591": 4.7709059715271,
      "592": -16.05297088623047,
      "593": 2.8004891872406006,
      "594": 8.289749145507812,
      "595": 7.406051158905029,
      "596": -7.104562282562256,
      "597": 7.156730651855469,
      "598": 4.364901542663574,
      "599": 8.801295280456543,
      "600": -13.605425834655762,
      "601": 2.706721305847168,
      "602": 5.74516487121582,
      "603": -11.658544540405273,
      "604": -1.5170503854751587,
      "605": 12.726987838745117,
      "606": -6.73905611038208,
      "607": 9.260170936584473,
      "608": 10.231832504272461,
      "609": -6.602684497833252,
      "610": 6.54430627822876,
      "611": -3.989872694015503,
      "612": -1.9166165590286255,
      "613": 2.775052547454834,
      "614": 2.418015956878662,
      "615": 2.219567060470581,
      "616": -11.979413986206055,
      "617": 5.552600860595703,
      "618": -3.048623561859131,
      "619": -4.54936408996582,
      "620": -5.032455921173096,
      "621": 0.5456428527832031,
      "622": 1.4442392587661743,
      "623": -0.12309327721595764,
      "624": -2.1950783729553223,
      "625": -1.2195746898651123,
      "626": 1.6065255403518677,
      "627": 3.386401414871216,
      "628": 0.5047459602355957,
      "629": -2.977053165435791,
      "630": 0.525388777256012,
      "631": -1.8676825761795044,
      "632": -2.3382091522216797,
      "633": -0.7537750005722046,
      "634": 0.46100354194641113,
      "635": -2.358677864074707,
      "636": -0.21372325718402863,
      "637": -1.8550719022750854,
      "638": -0.11132189631462097,
      "639": -0.23806138336658478,
      "640": 0.9734313488006592,
      "641": 0.16908100247383118,
      "642": 5.13852071762085,
      "643": 0.6362286806106567,
      "644": -3.6086556911468506,
      "645": -1.6343055963516235,
      "646": 2.90163516998291,
      "647": 1.099525809288025,
      "648": 0.4676140248775482,
      "649": 0.5124978423118591,
      "650": 0.8628777861595154,
      "651": -2.8015787601470947,
      "652": -0.5317715406417847,
      "653": 3.56725811958313,
      "654": -3.6567187309265137,
      "655": 5.173259735107422,
      "656": 0.28088459372520447,
      "657": 0.535129964351654,
      "658": 3.9826855659484863,
      "659": -2.7783734798431396,
      "660": 0.39005425572395325,
      "661": 2.302975654602051,
      "662": -1.3056625127792358,
      "663": 1.1302604675292969,
      "664": -2.675809144973755,
      "665": -6.338114261627197,
      "666": -0.28036749362945557,
      "667": -4.510228633880615,
      "668": -0.06026354432106018,
      "669": -4.287134647369385,
      "670": 2.4986302852630615,
      "671": 4.415546894073486,
      "672": 2.934408664703369,
      "673": -0.892630934715271,
      "674": 1.0812797546386719,
      "675": 1.6107488870620728,
      "676": -6.53980827331543,
      "677": 3.211223840713501,
      "678": -3.498465061187744,
      "679": 2.155792713165283,
      "680": 0.2758587598800659,
      "681": -2.249957323074341,
      "682": 0.6491589546203613,
      "683": -0.021662365645170212,
      "684": -1.8954216241836548,
      "685": 0.14431975781917572,
      "686": 0.4591365158557892,
      "687": -0.19818130135536194,
      "688": -0.5121399164199829,
      "689": 0.19089184701442719,
      "690": -0.012336530722677708,
      "691": 1.1578142642974854,
      "692": -0.8709812164306641,
      "693": 0.05170711129903793,
      "694": 0.38724154233932495,
      "695": -0.46671992540359497,
      "696": -0.5460799932479858,
      "697": -1.1543551683425903,
      "698": -0.259081095457077,
      "699": 0.4775019586086273,
      "700": 0.3514382541179657,
      "701": 1.7200701236724854,
      "702": -0.15294377505779266,
      "703": 1.364712119102478,
      "704": -0.0731690302491188,
      "705": 0.2468593418598175,
      "706": -0.6362298727035522,
      "707": 0.42833641171455383,
      "708": 0.08644481748342514,
      "709": -0.28726038336753845,
      "710": 0.4332462549209595,
      "711": 0.06331630051136017,
      "712": -1.5762444734573364,
      "713": -1.193468451499939,
      "714": 4.71496057510376,
      "715": 4.043741226196289,
      "716": 2.638930320739746,
      "717": -0.5111325979232788,
      "718": -4.674502849578857,
      "719": 0.2957374155521393,
      "720": -1.8291661739349365,
      "721": -0.4644400179386139,
      "722": -5.54475212097168,
      "723": -3.4490816593170166,
      "724": -0.8394235372543335,
      "725": -0.6058778166770935,
      "726": -0.7307305335998535,
      "727": 1.5512213706970215,
      "728": -1.1974164247512817,
      "729": 2.5639679431915283,
      "730": -1.3258068561553955,
      "731": 0.6417225003242493,
      "732": -3.4016551971435547,
      "733": -3.177396297454834,
      "734": -3.5062415599823,
      "735": 0.2170727252960205,
      "736": -3.851428985595703,
      "737": 1.2549757957458496,
      "738": 0.6245422959327698,
      "739": 1.6636314392089844,
      "740": 2.214733123779297,
      "741": -0.9199254512786865,
      "742": 1.2515815496444702,
      "743": 2.989032745361328,
      "744": 12.652161598205566,
      "745": 4.458235263824463,
      "746": 7.644664764404297,
      "747": -3.525367498397827,
      "748": -5.5858659744262695,
      "749": -0.5457980036735535,
      "750": 14.445976257324219,
      "751": -1.3505754470825195,
      "752": -0.5137040019035339,
      "753": -2.6119143962860107,
      "754": -0.3859315812587738,
      "755": 7.005039215087891,
      "756": -9.001585006713867,
      "757": -1.7666031122207642,
      "758": -12.262194633483887,
      "759": -6.746985912322998,
      "760": 8.745889663696289,
      "761": -9.478421211242676,
      "762": 9.667196273803711,
      "763": 4.3273210525512695,
      "764": -2.1583259105682373,
      "765": 7.384833812713623,
      "766": 10.961045265197754,
      "767": -2.218492269515991,
      "768": 0.6336305141448975,
      "769": 12.650354385375977,
      "770": -12.156251907348633,
      "771": 3.980011463165283,
      "772": -4.728219509124756,
      "773": 7.756941795349121,
      "774": 0.44569024443626404,
      "775": -5.171360969543457,
      "776": -4.3182291984558105,
      "777": 5.177851676940918,
      "778": -4.499239921569824,
      "779": -1.914834976196289,
      "780": 3.2886054515838623,
      "781": 5.841922760009766,
      "782": 14.052868843078613,
      "783": -7.616116523742676,
      "784": 10.698219299316406,
      "785": 6.158748149871826,
      "786": -6.710123062133789,
      "787": -4.494077682495117,
      "788": 8.781571388244629,
      "789": -10.649882316589355,
      "790": 2.168041706085205,
      "791": 3.256290912628174,
      "792": 0.955363929271698,
      "793": -9.323324203491211,
      "794": 13.823904991149902,
      "795": -0.9177888035774231,
      "796": 4.577365875244141,
      "797": -3.4532768726348877,
      "798": 4.623537540435791,
      "799": -6.573276996612549,
      "800": 0.47179660201072693,
      "801": 1.2635407447814941,
      "802": -4.746470928192139,
      "803": -4.899003982543945,
      "804": 1.705862283706665,
      "805": 4.329136371612549,
      "806": -3.5195634365081787,
      "807": 8.361661911010742,
      "808": 0.26402872800827026,
      "809": -4.97775411605835,
      "810": -6.538232326507568,
      "811": -1.0906851291656494,
      "812": -3.208777904510498,
      "813": 2.9453108310699463,
      "814": 3.6531145572662354,
      "815": 3.740194797515869,
      "816": -5.127194881439209,
      "817": -5.855810642242432,
      "818": 13.192801475524902,
      "819": -11.328466415405273,
      "820": -8.173354148864746,
      "821": -6.745110034942627,
      "822": -6.413025379180908,
      "823": 0.6805312037467957,
      "824": -14.630227088928223,
      "825": -1.0611125230789185,
      "826": 2.0990138053894043,
      "827": 3.584984302520752,
      "828": -10.509730339050293,
      "829": 9.511563301086426,
      "830": 9.265779495239258,
      "831": -4.1645097732543945,
      "832": 0.7997163534164429,
      "833": 3.9607880115509033,
      "834": 7.719430923461914,
      "835": -11.01521110534668,
      "836": -4.557478904724121,
      "837": -8.654651641845703,
      "838": 2.7733802795410156,
      "839": 4.547288417816162,
      "840": 6.373875617980957,
      "841": -7.681501388549805,
      "842": 0.4408557713031769,
      "843": 1.2094591856002808,
      "844": 0.619445264339447,
      "845": -21.03373146057129,
      "846": 2.1229422092437744,
      "847": -0.2335325926542282,
      "848": -6.1010637283325195,
      "849": 7.331149578094482,
      "850": 1.7406909465789795,
      "851": 2.6282432079315186,
      "852": 3.156522512435913,
      "853": 2.4479868412017822,
      "854": -10.14465045928955,
      "855": -6.347690582275391,
      "856": -12.193277359008789,
      "857": 2.492213249206543,
      "858": -5.745890140533447,
      "859": -0.8307074308395386,
      "860": 9.098551750183105,
      "861": -4.013637065887451,
      "862": -10.453569412231445,
      "863": 4.633416652679443,
      "864": 5.270432472229004,
      "865": 1.8708189725875854,
      "866": 15.210614204406738,
      "867": 8.409516334533691,
      "868": -1.6135205030441284,
      "869": -10.12998104095459,
      "870": -0.13030296564102173,
      "871": -6.051281929016113,
      "872": 8.20857048034668,
      "873": -0.4592974781990051,
      "874": -7.212587356567383,
      "875": 2.247359275817871,
      "876": -4.487015247344971,
      "877": 3.5288519859313965,
      "878": 1.8097565174102783,
      "879": 1.8170932531356812,
      "880": 13.22305965423584,
      "881": 6.114182472229004,
      "882": -14.135331153869629,
      "883": -0.9225561618804932,
      "884": -15.488155364990234,
      "885": -8.386752128601074,
      "886": -8.363085746765137,
      "887": -9.403800964355469,
      "888": 12.828165054321289,
      "889": -5.238539695739746,
      "890": -3.713510274887085,
      "891": 16.288660049438477,
      "892": 0.43795159459114075,
      "893": 4.15504264831543,
      "894": 10.125309944152832,
      "895": 8.101633071899414,
      "896": 11.567148208618164,
      "897": 1.8263386487960815,
      "898": -0.04049348086118698,
      "899": 2.920830488204956,
      "900": 0.6156513690948486,
      "901": -1.337729811668396,
      "902": 1.319266676902771,
      "903": 1.0217459201812744,
      "904": -0.423822283744812,
      "905": -0.26908886432647705,
      "906": -0.6988227367401123,
      "907": 3.6679956912994385,
      "908": -0.07017143070697784,
      "909": 0.7367910146713257,
      "910": 2.2309868335723877,
      "911": -1.9035656452178955,
      "912": 2.1518707275390625,
      "913": -0.6574515700340271,
      "914": 0.4939896762371063,
      "915": 1.2786368131637573,
      "916": 0.4407016932964325,
      "917": 1.3502570390701294,
      "918": -0.9304336905479431,
      "919": -1.3183151483535767,
      "920": 3.7558863162994385,
      "921": 1.979592204093933,
      "922": -1.2718594074249268,
      "923": -1.6247681379318237,
      "924": 0.3512638211250305,
      "925": 0.4967152774333954,
      "926": -0.3012129068374634,
      "927": -2.8992581367492676,
      "928": -0.2189793586730957,
      "929": -1.0011749267578125,
      "930": 2.2614669799804688,
      "931": 0.6894975304603577,
      "932": 1.2785226106643677,
      "933": 0.2747943103313446,
      "934": -0.6839401721954346,
      "935": -0.8131746649742126,
      "936": 0.8455590605735779,
      "937": -1.9556931257247925,
      "938": 2.777988910675049,
      "939": -0.8224189877510071,
      "940": -0.711088240146637,
      "941": 0.552536129951477,
      "942": 0.2146729677915573,
      "943": -1.2088911533355713,
      "944": 1.3165881633758545,
      "945": -0.31412798166275024,
      "946": -1.4748867750167847,
      "947": -0.2917230725288391,
      "948": 0.32719871401786804,
      "949": -0.6747204661369324,
      "950": 0.722049355506897,
      "951": -1.7074236869812012,
      "952": -0.028539469465613365,
      "953": -1.7327991724014282,
      "954": 0.9031442999839783,
      "955": -1.1912719011306763,
      "956": -1.38132905960083,
      "957": -0.1575700044631958,
      "958": -0.995745062828064,
      "959": -1.529343605041504,
      "960": -0.027954479679465294,
      "961": 0.0022050365805625916,
      "962": 0.04706062376499176,
      "963": -0.011227365583181381,
      "964": 0.013602565042674541,
      "965": 0.07529982924461365,
      "966": 0.005991732235997915,
      "967": 0.019063543528318405,
      "968": 0.026270678266882896,
      "969": -0.03351447358727455,
      "970": -0.05048757418990135,
      "971": -0.008643802255392075,
      "972": -0.02586318738758564,
      "973": 0.02982417494058609,
      "974": -0.06220061331987381,
      "975": 0.03531109541654587,
      "976": -0.005426489748060703,
      "977": 0.06062748283147812,
      "978": 0.0028265933506190777,
      "979": 0.02377898432314396,
      "980": 0.009906493127346039,
      "981": 0.06060994416475296,
      "982": -0.01803738623857498,
      "983": -0.03914443403482437,
      "984": 0.07402748614549637,
      "985": 0.03982842341065407,
      "986": 0.051744494587183,
      "987": 0.07399535179138184,
      "988": 0.012202594429254532,
      "989": 0.06819669157266617,
      "990": 0.07699736207723618,
      "991": 0.02004791982471943
    }
  },
  "hiddenLayers": [
    {
      "inputMatrix": {
        "rows": 20,
        "columns": 31,
        "weights": {
          "0": 1.6061692237854004,
          "1": 1.131906509399414,
          "2": -0.33997517824172974,
          "3": 3.664050579071045,
          "4": 0.49949097633361816,
          "5": -2.544698715209961,
          "6": 0.5943099856376648,
          "7": 2.2955539226531982,
          "8": 0.6176266670227051,
          "9": -0.4625312089920044,
          "10": -1.4770760536193848,
          "11": 3.0887060165405273,
          "12": -3.0503108501434326,
          "13": -1.1390788555145264,
          "14": 1.0779712200164795,
          "15": -1.6306277513504028,
          "16": 0.6660792827606201,
          "17": 0.2117665559053421,
          "18": 2.007701873779297,
          "19": 0.33485525846481323,
          "20": -0.39390432834625244,
          "21": 0.8302868604660034,
          "22": 2.9952499866485596,
          "23": 0.28431516885757446,
          "24": 0.24847519397735596,
          "25": 1.010613203048706,
          "26": -1.3444279432296753,
          "27": -0.34557920694351196,
          "28": -3.781381607055664,
          "29": 1.5504943132400513,
          "30": 0.7549275159835815,
          "31": 1.0095856189727783,
          "32": 0.5954712629318237,
          "33": -0.6289957761764526,
          "34": -0.03836847469210625,
          "35": 0.4986248016357422,
          "36": -0.4340898096561432,
          "37": -1.2900121212005615,
          "38": 0.6054591536521912,
          "39": -0.8099244236946106,
          "40": -0.6206563711166382,
          "41": 1.2160173654556274,
          "42": 1.7298966646194458,
          "43": 0.28735876083374023,
          "44": 0.6900703310966492,
          "45": 1.4893834590911865,
          "46": 0.6961249709129333,
          "47": -1.3831580877304077,
          "48": 0.15053808689117432,
          "49": -0.31559494137763977,
          "50": -0.9828044772148132,
          "51": 0.31754910945892334,
          "52": -0.47273653745651245,
          "53": 0.5037832260131836,
          "54": -1.1520473957061768,
          "55": 1.0397228002548218,
          "56": -0.9420638680458069,
          "57": -0.18105903267860413,
          "58": 1.3801933526992798,
          "59": -1.053876519203186,
          "60": -0.15375195443630219,
          "61": 0.40251249074935913,
          "62": 1.0479199886322021,
          "63": 0.18608003854751587,
          "64": -0.8671643733978271,
          "65": -1.2491904497146606,
          "66": -1.3511919975280762,
          "67": 0.32515138387680054,
          "68": 0.7328212857246399,
          "69": -0.05227217078208923,
          "70": 1.4568897485733032,
          "71": -0.2649451196193695,
          "72": 0.63698410987854,
          "73": 0.09790098667144775,
          "74": -0.22680337727069855,
          "75": 0.32691824436187744,
          "76": 0.6400057673454285,
          "77": 0.13943210244178772,
          "78": 2.0593135356903076,
          "79": 0.028684552758932114,
          "80": 1.5251537561416626,
          "81": 0.23307564854621887,
          "82": -0.9187753796577454,
          "83": -1.5190662145614624,
          "84": 0.9406757950782776,
          "85": 0.8548396825790405,
          "86": 0.4754120707511902,
          "87": 0.855190098285675,
          "88": -1.1149840354919434,
          "89": -0.990001916885376,
          "90": 0.7120433449745178,
          "91": -0.83209228515625,
          "92": -0.3408055007457733,
          "93": 2.2524542808532715,
          "94": 0.06380312144756317,
          "95": 2.258742332458496,
          "96": 0.1862945854663849,
          "97": 0.5495575666427612,
          "98": -1.2685350179672241,
          "99": 2.7169737815856934,
          "100": -1.0989164113998413,
          "101": 1.356361985206604,
          "102": -1.0521491765975952,
          "103": 0.6352755427360535,
          "104": 1.8746182918548584,
          "105": -0.24404600262641907,
          "106": 1.531746745109558,
          "107": 0.10966738313436508,
          "108": -1.3760974407196045,
          "109": 0.8353880643844604,
          "110": -1.1873631477355957,
          "111": 0.036009859293699265,
          "112": -0.5383009314537048,
          "113": -0.7458677887916565,
          "114": 0.411128431558609,
          "115": 1.735702395439148,
          "116": -0.7121593952178955,
          "117": -0.4172990024089813,
          "118": 2.1068875789642334,
          "119": -1.2548714876174927,
          "120": 0.3282962441444397,
          "121": -1.0845171213150024,
          "122": 1.10683274269104,
          "123": -0.1031862124800682,
          "124": -0.44364842772483826,
          "125": -1.6565587520599365,
          "126": 0.2856290936470032,
          "127": -2.3466997146606445,
          "128": -2.6939117908477783,
          "129": -0.2260013222694397,
          "130": -1.3451606035232544,
          "131": 0.968626856803894,
          "132": 0.658683180809021,
          "133": 1.1770936250686646,
          "134": -1.5358436107635498,
          "135": -2.25571608543396,
          "136": -0.9420755505561829,
          "137": 0.5042082071304321,
          "138": -0.15409326553344727,
          "139": 1.9326051473617554,
          "140": 0.16279111802577972,
          "141": 1.1794052124023438,
          "142": 0.6225701570510864,
          "143": -0.6170340776443481,
          "144": 1.861729621887207,
          "145": -2.507920026779175,
          "146": -2.683336019515991,
          "147": -0.4301060736179352,
          "148": 1.2404382228851318,
          "149": 1.0582592487335205,
          "150": -2.6107776165008545,
          "151": 2.3783152103424072,
          "152": 1.073838233947754,
          "153": -1.4541666507720947,
          "154": 2.3803441524505615,
          "155": 2.787118673324585,
          "156": 0.01350515615195036,
          "157": -2.230785846710205,
          "158": 1.329888105392456,
          "159": 0.5496039390563965,
          "160": -1.170006275177002,
          "161": -0.7741822600364685,
          "162": -1.0768134593963623,
          "163": 1.3764020204544067,
          "164": -0.8832219243049622,
          "165": -0.7693279981613159,
          "166": 2.888579845428467,
          "167": -0.49681252241134644,
          "168": -1.08955717086792,
          "169": 0.9097699522972107,
          "170": -2.250058650970459,
          "171": 0.9784447550773621,
          "172": 0.388729453086853,
          "173": 1.3848278522491455,
          "174": 1.5522736310958862,
          "175": 0.5945869088172913,
          "176": -0.42089590430259705,
          "177": 1.0953806638717651,
          "178": 0.163622185587883,
          "179": -1.0691542625427246,
          "180": 1.9949228763580322,
          "181": -0.6076503992080688,
          "182": -0.4141708314418793,
          "183": -2.038015365600586,
          "184": 0.7769673466682434,
          "185": 1.508694052696228,
          "186": 1.0788761377334595,
          "187": 2.202667713165283,
          "188": -1.2014449834823608,
          "189": -0.5109116435050964,
          "190": 0.5780870318412781,
          "191": 0.5962262749671936,
          "192": 0.03474215045571327,
          "193": 0.5235492587089539,
          "194": 0.00640485156327486,
          "195": 1.8579522371292114,
          "196": 2.0401763916015625,
          "197": 0.6182258129119873,
          "198": -0.6111828088760376,
          "199": 1.5514450073242188,
          "200": -0.6149865388870239,
          "201": 0.17719389498233795,
          "202": -1.073340892791748,
          "203": 0.93178391456604,
          "204": 0.7115073800086975,
          "205": -0.567562460899353,
          "206": -1.873685598373413,
          "207": 3.1909971237182617,
          "208": -0.24695099890232086,
          "209": -0.8935081958770752,
          "210": -2.158738374710083,
          "211": 0.20560222864151,
          "212": 0.29069697856903076,
          "213": -0.28680190443992615,
          "214": -1.7059539556503296,
          "215": 0.5683067440986633,
          "216": 0.6065323948860168,
          "217": 0.9411036968231201,
          "218": -0.32869192957878113,
          "219": -0.6580454707145691,
          "220": 1.247665524482727,
          "221": -1.7560455799102783,
          "222": -0.8442009687423706,
          "223": 1.8816026449203491,
          "224": -1.9718201160430908,
          "225": 1.432250738143921,
          "226": -0.1560301035642624,
          "227": -0.8508919477462769,
          "228": 1.9697527885437012,
          "229": -2.0378236770629883,
          "230": -0.209150031208992,
          "231": 1.5481362342834473,
          "232": -1.117139220237732,
          "233": 3.010143995285034,
          "234": -0.2633380591869354,
          "235": 3.706583023071289,
          "236": -1.3687965869903564,
          "237": -2.44568133354187,
          "238": -1.2496235370635986,
          "239": 0.6680086851119995,
          "240": 0.41949012875556946,
          "241": 1.043419361114502,
          "242": 1.6868358850479126,
          "243": -0.6120664477348328,
          "244": -0.8311823010444641,
          "245": -1.7342175245285034,
          "246": 0.1408957540988922,
          "247": 0.2452157735824585,
          "248": 1.7335063219070435,
          "249": -0.7069675326347351,
          "250": 0.8796026706695557,
          "251": 0.3069615662097931,
          "252": 0.8230724334716797,
          "253": -0.3975931704044342,
          "254": -0.008409012109041214,
          "255": 1.7021359205245972,
          "256": -3.5992538928985596,
          "257": 0.3264375627040863,
          "258": 0.5086998343467712,
          "259": 1.3133331537246704,
          "260": 0.47188878059387207,
          "261": -0.0964629054069519,
          "262": 0.7051757574081421,
          "263": -0.11999884247779846,
          "264": 0.47628358006477356,
          "265": -0.5097237825393677,
          "266": 0.1588551104068756,
          "267": 0.9245858788490295,
          "268": 0.6747792363166809,
          "269": -2.5175516605377197,
          "270": 0.2223779559135437,
          "271": -0.4331286549568176,
          "272": 1.4847071170806885,
          "273": -0.5693103075027466,
          "274": -0.2630998492240906,
          "275": 0.814114511013031,
          "276": -0.12474841624498367,
          "277": 1.3079464435577393,
          "278": 0.5508822798728943,
          "279": 1.8651002645492554,
          "280": -3.101778030395508,
          "281": 0.5612278580665588,
          "282": -0.3160139322280884,
          "283": 1.4615761041641235,
          "284": -1.0275646448135376,
          "285": -0.6390928626060486,
          "286": -2.1255455017089844,
          "287": -0.16110949218273163,
          "288": 1.7278907299041748,
          "289": 0.4010762572288513,
          "290": 1.342759609222412,
          "291": -0.2455042153596878,
          "292": -0.7262139320373535,
          "293": 3.0603299140930176,
          "294": 0.9403468370437622,
          "295": -0.610464334487915,
          "296": -0.22270840406417847,
          "297": -0.1264139711856842,
          "298": -2.037416934967041,
          "299": -1.6409335136413574,
          "300": -1.949586272239685,
          "301": -0.3717248737812042,
          "302": -0.6398427486419678,
          "303": 2.1445248126983643,
          "304": 0.6883643865585327,
          "305": -2.3207616806030273,
          "306": 2.5914554595947266,
          "307": 0.06943894922733307,
          "308": 0.6888028383255005,
          "309": 1.3123364448547363,
          "310": 0.3286099135875702,
          "311": -1.5283533334732056,
          "312": -0.2340027391910553,
          "313": -0.9393616914749146,
          "314": -0.04549300670623779,
          "315": -0.9145230650901794,
          "316": -2.848212718963623,
          "317": 0.7219052910804749,
          "318": -0.19330021739006042,
          "319": 0.12655778229236603,
          "320": 1.4170609712600708,
          "321": -0.49704235792160034,
          "322": 0.9898174405097961,
          "323": -0.42930132150650024,
          "324": 1.815845012664795,
          "325": 1.5974663496017456,
          "326": 0.4119665324687958,
          "327": 0.06730268895626068,
          "328": 0.0855279341340065,
          "329": -1.5228646993637085,
          "330": -0.5079839825630188,
          "331": -1.8138288259506226,
          "332": -1.5735652446746826,
          "333": 1.3065102100372314,
          "334": 2.259580373764038,
          "335": 0.44343605637550354,
          "336": -1.7034896612167358,
          "337": 1.5783425569534302,
          "338": 0.1655646115541458,
          "339": -0.6417040228843689,
          "340": 0.5077191591262817,
          "341": 0.9759716391563416,
          "342": -0.5694769620895386,
          "343": -1.0277637243270874,
          "344": 0.7174385190010071,
          "345": 1.466772437095642,
          "346": 0.37236419320106506,
          "347": -0.13784490525722504,
          "348": -0.9692922234535217,
          "349": -0.05337570607662201,
          "350": 0.525463342666626,
          "351": 0.9808576107025146,
          "352": 2.274259328842163,
          "353": 1.2075408697128296,
          "354": 1.1398338079452515,
          "355": -0.7481802701950073,
          "356": 1.0972992181777954,
          "357": 0.09732113033533096,
          "358": -0.26045772433280945,
          "359": -0.1631498783826828,
          "360": 0.3706786036491394,
          "361": 0.5767678618431091,
          "362": 0.809640109539032,
          "363": 0.2646806538105011,
          "364": -0.6858209371566772,
          "365": -1.6820346117019653,
          "366": 1.0558063983917236,
          "367": -0.1532268226146698,
          "368": -0.8085477352142334,
          "369": -0.947391927242279,
          "370": -0.13867932558059692,
          "371": 0.35023579001426697,
          "372": -1.4929646253585815,
          "373": -0.8212634921073914,
          "374": 0.1872916966676712,
          "375": 2.524940013885498,
          "376": 0.03967411071062088,
          "377": -0.9871013760566711,
          "378": 0.7635810971260071,
          "379": 0.4339614510536194,
          "380": 1.4353076219558716,
          "381": -1.4424309730529785,
          "382": 0.8109976053237915,
          "383": 1.3337891101837158,
          "384": -2.3807196617126465,
          "385": 0.06942211836576462,
          "386": 3.162640333175659,
          "387": 0.49297183752059937,
          "388": 2.042041063308716,
          "389": -0.4726918041706085,
          "390": 2.501102924346924,
          "391": -2.041250228881836,
          "392": -2.027290105819702,
          "393": -1.8981853723526,
          "394": 1.179977297782898,
          "395": 0.7244285345077515,
          "396": 1.1043370962142944,
          "397": 0.6518387198448181,
          "398": -1.5736351013183594,
          "399": 0.5220297574996948,
          "400": -3.4045250415802,
          "401": 1.071394920349121,
          "402": 2.1418063640594482,
          "403": 2.1586673259735107,
          "404": -0.7619198560714722,
          "405": 0.08227166533470154,
          "406": 1.452907681465149,
          "407": 2.126671314239502,
          "408": 0.9714004993438721,
          "409": -0.9035586714744568,
          "410": -1.1473301649093628,
          "411": 0.11135084182024002,
          "412": 0.22447086870670319,
          "413": 2.2182297706604004,
          "414": 3.882951498031616,
          "415": 0.1914660632610321,
          "416": 0.8219886422157288,
          "417": 0.401471346616745,
          "418": 1.9946527481079102,
          "419": -0.7674106359481812,
          "420": -1.568387746810913,
          "421": 1.140311598777771,
          "422": -0.5668477416038513,
          "423": 0.36039647459983826,
          "424": -0.5065231919288635,
          "425": 0.09631482511758804,
          "426": 0.5121744275093079,
          "427": 0.25323715806007385,
          "428": 0.2137317806482315,
          "429": -0.27525755763053894,
          "430": -0.06452327221632004,
          "431": -2.1660754680633545,
          "432": 0.33996960520744324,
          "433": 1.3100894689559937,
          "434": 2.070786714553833,
          "435": -3.5072550773620605,
          "436": -1.6559404134750366,
          "437": 1.1245533227920532,
          "438": 1.643247365951538,
          "439": -0.5945205688476562,
          "440": -2.9665441513061523,
          "441": 0.3335494101047516,
          "442": 1.5799901485443115,
          "443": 1.3921566009521484,
          "444": 0.24445731937885284,
          "445": 0.9551607966423035,
          "446": 0.8083789944648743,
          "447": 1.068098783493042,
          "448": 0.2793257236480713,
          "449": 0.7023056149482727,
          "450": -0.8382632732391357,
          "451": 1.7631738185882568,
          "452": 1.4138524532318115,
          "453": -1.531348705291748,
          "454": -0.8921235203742981,
          "455": -1.3792005777359009,
          "456": -2.7376976013183594,
          "457": 0.1203414797782898,
          "458": 0.7225208282470703,
          "459": 0.7692099809646606,
          "460": -1.4260811805725098,
          "461": -0.05861644446849823,
          "462": -0.46681123971939087,
          "463": -1.3699240684509277,
          "464": -1.4908421039581299,
          "465": -0.9824139475822449,
          "466": -0.17978161573410034,
          "467": 1.2866050004959106,
          "468": 0.8073595762252808,
          "469": -1.9961810111999512,
          "470": -0.8308088183403015,
          "471": 0.03522792086005211,
          "472": 0.9384545683860779,
          "473": -0.10642500966787338,
          "474": -0.9475277066230774,
          "475": -1.6510467529296875,
          "476": -0.9972123503684998,
          "477": 0.09328784048557281,
          "478": -0.6628177762031555,
          "479": 1.6886842250823975,
          "480": -0.3066761791706085,
          "481": 0.9013109803199768,
          "482": -0.30016326904296875,
          "483": -1.4300297498703003,
          "484": -0.025524122640490532,
          "485": 2.2568037509918213,
          "486": -0.00669283838942647,
          "487": -1.0589512586593628,
          "488": 0.461948424577713,
          "489": -0.5949319005012512,
          "490": -1.3390294313430786,
          "491": -0.38586190342903137,
          "492": 0.5367830395698547,
          "493": -0.4587465822696686,
          "494": 0.9685189723968506,
          "495": 2.0677618980407715,
          "496": 0.04368600249290466,
          "497": -0.7401587963104248,
          "498": -2.5152440071105957,
          "499": 0.8235316276550293,
          "500": -1.3472622632980347,
          "501": -0.7984788417816162,
          "502": 1.366848349571228,
          "503": 0.019079407677054405,
          "504": 2.503972291946411,
          "505": -0.3146730959415436,
          "506": -2.1984167098999023,
          "507": 1.5676600933074951,
          "508": -2.339435577392578,
          "509": -0.9581640958786011,
          "510": 0.26214873790740967,
          "511": -1.1335504055023193,
          "512": 2.3231201171875,
          "513": 1.6348910331726074,
          "514": 2.432079792022705,
          "515": 2.1437184810638428,
          "516": -0.04802311211824417,
          "517": 0.10450736433267593,
          "518": 0.45758819580078125,
          "519": 0.051176898181438446,
          "520": -0.10944551229476929,
          "521": 0.027104446664452553,
          "522": -0.7742301821708679,
          "523": -1.4464718103408813,
          "524": 0.053386446088552475,
          "525": -2.642428398132324,
          "526": -0.7625800967216492,
          "527": 0.20981813967227936,
          "528": -1.4424598217010498,
          "529": 1.0728634595870972,
          "530": 0.8002284169197083,
          "531": 0.37408769130706787,
          "532": 1.6580686569213867,
          "533": -1.062897801399231,
          "534": -0.720057487487793,
          "535": -0.19026441872119904,
          "536": -0.07556182146072388,
          "537": 0.6003531217575073,
          "538": -1.3057215213775635,
          "539": 4.203142166137695,
          "540": -0.7276213765144348,
          "541": -1.2011654376983643,
          "542": 1.458466649055481,
          "543": -1.747666597366333,
          "544": -2.0832457542419434,
          "545": 0.4184255301952362,
          "546": -0.3861929774284363,
          "547": 0.5984603762626648,
          "548": 0.4295094311237335,
          "549": -3.1178252696990967,
          "550": 2.0111474990844727,
          "551": 4.606164455413818,
          "552": -0.7762920260429382,
          "553": 0.14488986134529114,
          "554": 2.036918878555298,
          "555": 0.6269577145576477,
          "556": 0.5389338135719299,
          "557": -0.5249341130256653,
          "558": -1.3951494693756104,
          "559": -1.8770138025283813,
          "560": -0.9082359075546265,
          "561": -1.042310357093811,
          "562": 1.3428819179534912,
          "563": 1.3416988849639893,
          "564": -0.5220036506652832,
          "565": 0.33167150616645813,
          "566": -0.9345484375953674,
          "567": 1.3359814882278442,
          "568": 0.7442211508750916,
          "569": -1.1656372547149658,
          "570": 0.02913283370435238,
          "571": 1.2538920640945435,
          "572": 0.19224637746810913,
          "573": 1.6291934251785278,
          "574": 2.5511558055877686,
          "575": -0.23699115216732025,
          "576": 0.5800202488899231,
          "577": 0.718350350856781,
          "578": 1.650234580039978,
          "579": -1.7558114528656006,
          "580": 0.08199808746576309,
          "581": -0.420133113861084,
          "582": 0.9609766006469727,
          "583": 1.0443021059036255,
          "584": -0.5024133324623108,
          "585": -0.10041473060846329,
          "586": 1.6685818433761597,
          "587": 0.1955089122056961,
          "588": 2.4240968227386475,
          "589": 0.5644528269767761,
          "590": -0.93776935338974,
          "591": -1.2202848196029663,
          "592": 0.6314032673835754,
          "593": -1.1720855236053467,
          "594": -0.29607418179512024,
          "595": -0.4014084041118622,
          "596": 2.3418431282043457,
          "597": -0.13494576513767242,
          "598": -0.3196125328540802,
          "599": -0.40512996912002563,
          "600": -1.3863247632980347,
          "601": -0.29119229316711426,
          "602": 0.6981045007705688,
          "603": 0.49929100275039673,
          "604": 0.19242405891418457,
          "605": 1.0038368701934814,
          "606": 1.247140645980835,
          "607": 0.7806020379066467,
          "608": 1.6860929727554321,
          "609": 0.4715312719345093,
          "610": -1.1588329076766968,
          "611": -2.0166776180267334,
          "612": -0.8006306290626526,
          "613": -0.2585793733596802,
          "614": 0.04292544722557068,
          "615": -1.0124163627624512,
          "616": 0.10347676277160645,
          "617": 1.1971956491470337,
          "618": -1.3289227485656738,
          "619": -1.2518932819366455
        }
      },
      "inputHidden": {
        "rows": 20,
        "columns": 20,
        "weights": {
          "0": -2.164364814758301,
          "1": -1.8023419380187988,
          "2": 0.5833737254142761,
          "3": 0.6787742972373962,
          "4": -0.6084595918655396,
          "5": 0.6621786952018738,
          "6": -0.8201515674591064,
          "7": -1.5491911172866821,
          "8": 2.782524824142456,
          "9": -1.7855945825576782,
          "10": -0.6317296028137207,
          "11": 0.6757325530052185,
          "12": -0.9841505885124207,
          "13": -0.871863603591919,
          "14": 0.6831562519073486,
          "15": -2.396120548248291,
          "16": -0.6809607148170471,
          "17": -1.3620210886001587,
          "18": 0.3284001648426056,
          "19": 1.1440248489379883,
          "20": 1.4209816455841064,
          "21": 2.166001796722412,
          "22": -0.316764771938324,
          "23": -1.33901846408844,
          "24": -5.543522357940674,
          "25": 0.5295929312705994,
          "26": -0.39979076385498047,
          "27": 6.623653411865234,
          "28": -0.3995200991630554,
          "29": 4.703792572021484,
          "30": 4.787501335144043,
          "31": -3.269313097000122,
          "32": -4.600767135620117,
          "33": -5.945357322692871,
          "34": -2.5091214179992676,
          "35": 1.9908409118652344,
          "36": 0.5350361466407776,
          "37": 2.032897472381592,
          "38": 2.2448172569274902,
          "39": -0.8530149459838867,
          "40": 5.661814212799072,
          "41": 4.929446220397949,
          "42": -2.666062116622925,
          "43": -3.4293041229248047,
          "44": -2.3613526821136475,
          "45": 0.6153674125671387,
          "46": 0.526618480682373,
          "47": -3.8511273860931396,
          "48": -0.25291138887405396,
          "49": 0.32569992542266846,
          "50": -0.5478776097297668,
          "51": 3.9961564540863037,
          "52": -1.0681818723678589,
          "53": -0.5017496347427368,
          "54": 3.6250247955322266,
          "55": 3.943526268005371,
          "56": -2.3826887607574463,
          "57": 0.9551001787185669,
          "58": -4.363124370574951,
          "59": -5.577229022979736,
          "60": 2.9001030921936035,
          "61": 1.9827148914337158,
          "62": -1.1696373224258423,
          "63": 2.1464056968688965,
          "64": -7.190897464752197,
          "65": -2.408116579055786,
          "66": 1.5378400087356567,
          "67": 0.7678573131561279,
          "68": -1.4539729356765747,
          "69": -1.5510624647140503,
          "70": 4.177680492401123,
          "71": 0.7716740369796753,
          "72": -0.13676844537258148,
          "73": -5.092047691345215,
          "74": 0.07705459743738174,
          "75": -0.6202808022499084,
          "76": 2.293307304382324,
          "77": -0.06744854897260666,
          "78": -0.2311810702085495,
          "79": -1.392812728881836,
          "80": -1.7824698686599731,
          "81": -1.870991587638855,
          "82": 0.8750107288360596,
          "83": 3.4795029163360596,
          "84": -0.33231908082962036,
          "85": 0.49220359325408936,
          "86": 0.5601650476455688,
          "87": 0.4500599503517151,
          "88": -1.1494752168655396,
          "89": 0.46724313497543335,
          "90": -1.0425909757614136,
          "91": -1.7594841718673706,
          "92": 0.8432796597480774,
          "93": 3.046372890472412,
          "94": 2.2838642597198486,
          "95": 2.8574681282043457,
          "96": -0.6066274046897888,
          "97": 0.7321706414222717,
          "98": 0.5567264556884766,
          "99": 1.307159423828125,
          "100": 1.0871291160583496,
          "101": 4.648839950561523,
          "102": -0.3261486291885376,
          "103": 4.503453731536865,
          "104": -4.353195667266846,
          "105": -0.5001277327537537,
          "106": -1.196414589881897,
          "107": -2.905064582824707,
          "108": -0.020494986325502396,
          "109": -1.5377960205078125,
          "110": 1.2546242475509644,
          "111": -2.4050211906433105,
          "112": 2.800319194793701,
          "113": -0.7608761787414551,
          "114": -0.35357755422592163,
          "115": 5.76813268661499,
          "116": -1.1266663074493408,
          "117": -2.259263277053833,
          "118": -1.0681003332138062,
          "119": -2.0902552604675293,
          "120": 1.8830634355545044,
          "121": -0.34787717461586,
          "122": -1.2970585823059082,
          "123": 1.216220736503601,
          "124": -2.626447916030884,
          "125": 4.313990592956543,
          "126": -0.7154549956321716,
          "127": 2.5162429809570312,
          "128": -1.772803544998169,
          "129": 2.3265206813812256,
          "130": 2.0081772804260254,
          "131": -0.7583142518997192,
          "132": -2.0256078243255615,
          "133": -2.5317282676696777,
          "134": -0.14542435109615326,
          "135": 1.049332857131958,
          "136": 1.3562865257263184,
          "137": 0.2517147362232208,
          "138": -1.2036926746368408,
          "139": -1.9341192245483398,
          "140": -0.6748115420341492,
          "141": -0.6574993133544922,
          "142": 0.8804283142089844,
          "143": 2.0749447345733643,
          "144": -1.754881739616394,
          "145": -4.267251014709473,
          "146": 1.848310947418213,
          "147": -1.1494578123092651,
          "148": -0.8851147890090942,
          "149": 1.0186504125595093,
          "150": -0.9339038729667664,
          "151": -1.2365728616714478,
          "152": -0.39955398440361023,
          "153": -2.0381438732147217,
          "154": -1.46676766872406,
          "155": 1.2122392654418945,
          "156": -2.6242001056671143,
          "157": 1.2330940961837769,
          "158": -1.1312170028686523,
          "159": -1.4835727214813232,
          "160": 2.194471836090088,
          "161": 0.2377280592918396,
          "162": -2.7169606685638428,
          "163": -0.6937049627304077,
          "164": -5.318471431732178,
          "165": -1.1634584665298462,
          "166": 2.743581533432007,
          "167": -2.635504961013794,
          "168": -2.1098432540893555,
          "169": 1.5863679647445679,
          "170": 1.4466477632522583,
          "171": 0.8357335925102234,
          "172": 1.7034969329833984,
          "173": -3.1066691875457764,
          "174": 1.1089038848876953,
          "175": 6.551614284515381,
          "176": -1.9481539726257324,
          "177": -2.024355888366699,
          "178": -1.1603933572769165,
          "179": -1.0736273527145386,
          "180": -1.3613871335983276,
          "181": -2.7384674549102783,
          "182": -0.15760350227355957,
          "183": -0.6295849680900574,
          "184": -0.9490991234779358,
          "185": -1.7580875158309937,
          "186": 1.5043869018554688,
          "187": -0.13237859308719635,
          "188": -1.310083270072937,
          "189": 0.17297834157943726,
          "190": 2.3911805152893066,
          "191": -0.23812638223171234,
          "192": 0.0940512865781784,
          "193": -0.5063603520393372,
          "194": -3.232119560241699,
          "195": -1.7315728664398193,
          "196": 0.3862055838108063,
          "197": -1.5298205614089966,
          "198": -0.32845595479011536,
          "199": 0.14009657502174377,
          "200": -0.2423655241727829,
          "201": 0.741731584072113,
          "202": 3.148178815841675,
          "203": 0.6069908738136292,
          "204": -0.46423202753067017,
          "205": -0.7263804078102112,
          "206": -2.081364154815674,
          "207": 1.6702741384506226,
          "208": -2.141099214553833,
          "209": 1.6963213682174683,
          "210": 1.3229238986968994,
          "211": -1.8385858535766602,
          "212": -1.5633808374404907,
          "213": -1.4137018918991089,
          "214": -1.7383949756622314,
          "215": -0.8657499551773071,
          "216": 0.22924335300922394,
          "217": -0.592447817325592,
          "218": -0.13275747001171112,
          "219": 0.479052871465683,
          "220": 0.7662127614021301,
          "221": -4.141478061676025,
          "222": 2.1568644046783447,
          "223": 2.6085317134857178,
          "224": -0.5696656107902527,
          "225": 2.3408901691436768,
          "226": 3.022923231124878,
          "227": 2.7638816833496094,
          "228": 1.459365963935852,
          "229": 2.4436960220336914,
          "230": -0.29573580622673035,
          "231": -3.041769027709961,
          "232": -0.24283497035503387,
          "233": -1.9830683469772339,
          "234": -0.926551342010498,
          "235": -6.066843032836914,
          "236": 0.10753630101680756,
          "237": -3.4639034271240234,
          "238": 1.9258853197097778,
          "239": 5.600153923034668,
          "240": 3.225597620010376,
          "241": 2.1222522258758545,
          "242": -2.0057027339935303,
          "243": 0.658732533454895,
          "244": -1.5317339897155762,
          "245": -2.157658100128174,
          "246": -1.2308529615402222,
          "247": -1.5127702951431274,
          "248": -0.8611363768577576,
          "249": 1.0577925443649292,
          "250": 1.5972362756729126,
          "251": 1.51542067527771,
          "252": 0.9653922319412231,
          "253": -1.6086139678955078,
          "254": -0.7494640946388245,
          "255": 2.4005115032196045,
          "256": -0.5410425066947937,
          "257": -0.009634509682655334,
          "258": -0.6972252130508423,
          "259": -1.9243139028549194,
          "260": -3.094163417816162,
          "261": 4.002901077270508,
          "262": -3.302161931991577,
          "263": -1.7149345874786377,
          "264": -1.238755464553833,
          "265": -1.3178526163101196,
          "266": -3.357652425765991,
          "267": 1.437266230583191,
          "268": 2.122561454772949,
          "269": -2.88006591796875,
          "270": -0.8812453746795654,
          "271": 1.437917709350586,
          "272": -4.213994979858398,
          "273": 0.5758295655250549,
          "274": 0.29504531621932983,
          "275": -0.6143823862075806,
          "276": 1.6110098361968994,
          "277": 3.2093849182128906,
          "278": -2.3809890747070312,
          "279": -2.898022174835205,
          "280": -1.6947799921035767,
          "281": -0.6624167561531067,
          "282": -0.35466641187667847,
          "283": 1.8495813608169556,
          "284": -0.9043945074081421,
          "285": -1.8561086654663086,
          "286": -0.6502761840820312,
          "287": 1.0875946283340454,
          "288": 1.795906662940979,
          "289": -0.06661877036094666,
          "290": -0.8901486992835999,
          "291": -0.051435504108667374,
          "292": 0.2379678189754486,
          "293": 0.4989459216594696,
          "294": -0.4451808035373688,
          "295": 0.02601529285311699,
          "296": 0.8638204336166382,
          "297": 1.1941664218902588,
          "298": 0.4212779104709625,
          "299": 0.7516537308692932,
          "300": 2.105036973953247,
          "301": 3.0370168685913086,
          "302": -1.415498971939087,
          "303": -1.052698016166687,
          "304": 0.6130164861679077,
          "305": 3.2473859786987305,
          "306": -1.8454399108886719,
          "307": -1.014955759048462,
          "308": 1.728529930114746,
          "309": 4.4396281242370605,
          "310": -1.2099733352661133,
          "311": 2.13531231880188,
          "312": 0.15203458070755005,
          "313": 1.8352681398391724,
          "314": 2.0492987632751465,
          "315": -1.3004637956619263,
          "316": -2.8277339935302734,
          "317": -1.6824257373809814,
          "318": -2.164905309677124,
          "319": -0.8441475033760071,
          "320": -1.1975977420806885,
          "321": -0.25026848912239075,
          "322": -2.2170188426971436,
          "323": -1.0236514806747437,
          "324": -1.834764003753662,
          "325": 1.0437872409820557,
          "326": -0.13146063685417175,
          "327": 0.9222739934921265,
          "328": 1.46847665309906,
          "329": 2.057358980178833,
          "330": 1.7155518531799316,
          "331": 0.7680219411849976,
          "332": -0.5485004186630249,
          "333": -0.6909372806549072,
          "334": -3.8094115257263184,
          "335": 0.6103803515434265,
          "336": -1.690858006477356,
          "337": 0.3382689654827118,
          "338": 0.1764124482870102,
          "339": -1.5831491947174072,
          "340": 0.15041057765483856,
          "341": 0.8870155811309814,
          "342": -2.505934000015259,
          "343": -0.2551339566707611,
          "344": -0.43560507893562317,
          "345": -1.3525378704071045,
          "346": -0.45811593532562256,
          "347": -2.0263025760650635,
          "348": 0.6638125777244568,
          "349": 0.6436496376991272,
          "350": 2.136869430541992,
          "351": 1.47138249874115,
          "352": -0.5344746708869934,
          "353": -1.7904314994812012,
          "354": 0.21085844933986664,
          "355": -0.9042812585830688,
          "356": 1.5377837419509888,
          "357": 1.8299212455749512,
          "358": -0.903587281703949,
          "359": -0.2284611165523529,
          "360": 1.5171903371810913,
          "361": 0.3741450011730194,
          "362": -1.2124545574188232,
          "363": -2.0383248329162598,
          "364": -3.884298324584961,
          "365": -0.17406955361366272,
          "366": -1.1336004734039307,
          "367": 0.12811018526554108,
          "368": -0.5999929904937744,
          "369": 1.2037588357925415,
          "370": 0.8542783260345459,
          "371": -3.4151926040649414,
          "372": -2.1625545024871826,
          "373": -2.75933575630188,
          "374": 1.7129560708999634,
          "375": 2.3318214416503906,
          "376": 1.7086445093154907,
          "377": -2.933184862136841,
          "378": -0.932993471622467,
          "379": -3.0712344646453857,
          "380": 0.06026069074869156,
          "381": 2.826592206954956,
          "382": -1.8374359607696533,
          "383": -4.597130298614502,
          "384": -3.4345855712890625,
          "385": 0.24894365668296814,
          "386": 0.19645215570926666,
          "387": 0.7164831757545471,
          "388": 0.13730907440185547,
          "389": 2.3631479740142822,
          "390": 1.4631123542785645,
          "391": -0.19909456372261047,
          "392": -3.644543170928955,
          "393": -6.326671123504639,
          "394": -1.5791181325912476,
          "395": 2.0444934368133545,
          "396": -0.5958214998245239,
          "397": -0.28673332929611206,
          "398": -0.317477822303772,
          "399": -1.7210958003997803
        }
      },
      "inputBias": {
        "rows": 20,
        "columns": 1,
        "weights": {
          "0": -1.230026125907898,
          "1": -0.29884809255599976,
          "2": 1.5493804216384888,
          "3": 1.400105357170105,
          "4": -1.2592225074768066,
          "5": -1.4080147743225098,
          "6": -0.07451094686985016,
          "7": -1.1604775190353394,
          "8": -0.021163251250982285,
          "9": -0.6255496740341187,
          "10": -0.6798824667930603,
          "11": -1.6982948780059814,
          "12": -0.21475964784622192,
          "13": -0.9904581308364868,
          "14": -0.35065868496894836,
          "15": 0.1639557033777237,
          "16": -1.6703842878341675,
          "17": -0.8196747303009033,
          "18": -0.27390146255493164,
          "19": -0.4217762053012848
        }
      },
      "forgetMatrix": {
        "rows": 20,
        "columns": 31,
        "weights": {
          "0": -1.5638636350631714,
          "1": -2.396684169769287,
          "2": -0.6092211604118347,
          "3": -1.192893385887146,
          "4": 0.06471502780914307,
          "5": 0.26667842268943787,
          "6": -0.9069724082946777,
          "7": 0.3427128493785858,
          "8": 1.1381179094314575,
          "9": -0.4673416018486023,
          "10": 0.12502998113632202,
          "11": -2.63769793510437,
          "12": 0.09008004516363144,
          "13": 1.8231602907180786,
          "14": 0.05703983083367348,
          "15": 1.8711726665496826,
          "16": 1.7289084196090698,
          "17": 0.384835422039032,
          "18": 1.074736475944519,
          "19": 2.503953456878662,
          "20": -1.4948874711990356,
          "21": -1.4595590829849243,
          "22": -0.87991863489151,
          "23": 1.3173861503601074,
          "24": 1.683130145072937,
          "25": -0.4170115292072296,
          "26": -3.0640416145324707,
          "27": 2.5728049278259277,
          "28": 0.5299047231674194,
          "29": -0.3879243731498718,
          "30": 1.0831749439239502,
          "31": 0.5006298422813416,
          "32": -2.137444019317627,
          "33": 3.064805746078491,
          "34": 1.0371328592300415,
          "35": 0.03503192216157913,
          "36": -0.391270250082016,
          "37": 0.517244815826416,
          "38": -2.3014557361602783,
          "39": 0.13503658771514893,
          "40": -2.717348337173462,
          "41": -0.33851170539855957,
          "42": 1.3776322603225708,
          "43": 1.092763066291809,
          "44": 0.8128413558006287,
          "45": 1.1586884260177612,
          "46": -1.7605133056640625,
          "47": 0.5325160622596741,
          "48": -2.5750479698181152,
          "49": -1.6805593967437744,
          "50": -3.4443013668060303,
          "51": 1.1459585428237915,
          "52": 0.371173232793808,
          "53": -1.2526001930236816,
          "54": -0.05574200674891472,
          "55": 0.02284739539027214,
          "56": -0.8382434248924255,
          "57": 0.35547125339508057,
          "58": 2.2896482944488525,
          "59": -3.380507469177246,
          "60": 1.5707306861877441,
          "61": 1.1741306781768799,
          "62": 0.05040508508682251,
          "63": -0.14942096173763275,
          "64": 2.7205088138580322,
          "65": 1.640698790550232,
          "66": 0.04303509742021561,
          "67": -1.2516001462936401,
          "68": 0.4411729872226715,
          "69": -2.2501161098480225,
          "70": -2.749998092651367,
          "71": -0.5573371648788452,
          "72": 0.3350372016429901,
          "73": 2.477689027786255,
          "74": 1.4696248769760132,
          "75": 1.1955623626708984,
          "76": 3.1942903995513916,
          "77": -0.05436967313289642,
          "78": -0.7071707248687744,
          "79": -4.378676414489746,
          "80": -0.7100048065185547,
          "81": -4.678585052490234,
          "82": 1.0122743844985962,
          "83": -1.1392682790756226,
          "84": -1.325446605682373,
          "85": -0.09198391437530518,
          "86": -1.1865367889404297,
          "87": -0.47305017709732056,
          "88": 1.2834211587905884,
          "89": 1.1794310808181763,
          "90": -1.473339557647705,
          "91": 1.7480969429016113,
          "92": 1.5030241012573242,
          "93": -0.962753415107727,
          "94": 0.3702538311481476,
          "95": -0.7412931323051453,
          "96": -0.6252164244651794,
          "97": 1.9314591884613037,
          "98": -0.6996927857398987,
          "99": 2.3427813053131104,
          "100": 0.998578667640686,
          "101": 0.13769584894180298,
          "102": 0.6494452953338623,
          "103": 4.13247013092041,
          "104": 0.4249335825443268,
          "105": -0.5161360502243042,
          "106": 0.9115338325500488,
          "107": -0.482511043548584,
          "108": -1.992356300354004,
          "109": -0.9086562395095825,
          "110": -2.057871103286743,
          "111": -0.2966567873954773,
          "112": 0.9446106553077698,
          "113": 0.4850294888019562,
          "114": 3.3824541568756104,
          "115": 2.9864890575408936,
          "116": 1.555690884590149,
          "117": -2.5313615798950195,
          "118": 1.3870949745178223,
          "119": 0.010427303612232208,
          "120": -3.228173017501831,
          "121": 0.008975526317954063,
          "122": 1.067823886871338,
          "123": -2.0137062072753906,
          "124": -1.0572378635406494,
          "125": -2.0187342166900635,
          "126": -1.0700091123580933,
          "127": -0.9955888986587524,
          "128": 0.6660403609275818,
          "129": 3.6716835498809814,
          "130": -1.4061744213104248,
          "131": -0.3040083348751068,
          "132": -0.7095464468002319,
          "133": 0.5142790675163269,
          "134": 2.6897482872009277,
          "135": -1.263260006904602,
          "136": 2.037315845489502,
          "137": 2.820770025253296,
          "138": -0.1443331241607666,
          "139": 1.4575726985931396,
          "140": 1.2926859855651855,
          "141": -0.6735994815826416,
          "142": 0.20647595822811127,
          "143": 0.433097243309021,
          "144": 2.341566562652588,
          "145": -0.011292021721601486,
          "146": -1.459456205368042,
          "147": 1.1210715770721436,
          "148": 0.851163923740387,
          "149": -0.17096441984176636,
          "150": -1.7267513275146484,
          "151": 0.36094602942466736,
          "152": -0.24076396226882935,
          "153": -1.5302910804748535,
          "154": 0.09345632046461105,
          "155": -0.061236683279275894,
          "156": -2.4043796062469482,
          "157": -0.016434811055660248,
          "158": -1.2686649560928345,
          "159": 0.4236486256122589,
          "160": 2.0438225269317627,
          "161": 0.1940193474292755,
          "162": -0.6140975952148438,
          "163": 0.2328941971063614,
          "164": 1.8825706243515015,
          "165": 0.3560101389884949,
          "166": 0.3426854908466339,
          "167": 2.9721274375915527,
          "168": 0.5083571672439575,
          "169": -0.9624430537223816,
          "170": 1.5567106008529663,
          "171": 0.8900579810142517,
          "172": 0.41124871373176575,
          "173": 0.24253098666667938,
          "174": 1.3526513576507568,
          "175": -0.22503331303596497,
          "176": -1.1012561321258545,
          "177": -2.4617905616760254,
          "178": 2.5039453506469727,
          "179": 0.8177821040153503,
          "180": 1.303610920906067,
          "181": -1.0948823690414429,
          "182": 2.1150381565093994,
          "183": 0.378835529088974,
          "184": -0.3955145478248596,
          "185": 2.426978349685669,
          "186": -0.746021568775177,
          "187": 0.016321465373039246,
          "188": 0.5130292177200317,
          "189": 1.707152247428894,
          "190": 0.7900160551071167,
          "191": 0.18706747889518738,
          "192": 1.783884882926941,
          "193": -0.4358711242675781,
          "194": 2.3477399349212646,
          "195": -1.1579376459121704,
          "196": 0.8680160045623779,
          "197": 1.9428074359893799,
          "198": 0.1336899995803833,
          "199": 2.0323991775512695,
          "200": -0.7467815279960632,
          "201": 1.1686142683029175,
          "202": 0.2865292429924011,
          "203": 0.26721611618995667,
          "204": -2.317779302597046,
          "205": -2.027453660964966,
          "206": -0.7863749265670776,
          "207": 2.103257894515991,
          "208": 1.5113428831100464,
          "209": -2.9193201065063477,
          "210": -3.0349645614624023,
          "211": -1.7970237731933594,
          "212": 1.962058186531067,
          "213": 1.0960309505462646,
          "214": -2.2119131088256836,
          "215": 0.3376765251159668,
          "216": 4.113655090332031,
          "217": 0.06664097309112549,
          "218": -0.9167727828025818,
          "219": -1.5622427463531494,
          "220": -0.6773232817649841,
          "221": 1.3695415258407593,
          "222": 1.8933383226394653,
          "223": -1.9186054468154907,
          "224": 0.5288128852844238,
          "225": 1.9367808103561401,
          "226": -0.5746689438819885,
          "227": 1.6535286903381348,
          "228": -1.5493502616882324,
          "229": 1.3006969690322876,
          "230": 1.5896722078323364,
          "231": -0.9358174204826355,
          "232": 2.3478639125823975,
          "233": -0.47032466530799866,
          "234": 0.5991514325141907,
          "235": -0.35902005434036255,
          "236": -0.3143709599971771,
          "237": 1.4052040576934814,
          "238": -0.4020985960960388,
          "239": -1.5009573698043823,
          "240": -0.17286407947540283,
          "241": -0.08505920320749283,
          "242": -1.00974702835083,
          "243": 0.5804109573364258,
          "244": 0.3072974681854248,
          "245": 0.327970951795578,
          "246": -1.6763759851455688,
          "247": 0.8082416653633118,
          "248": 0.6751278638839722,
          "249": -1.0884617567062378,
          "250": 1.2564671039581299,
          "251": 0.6755571961402893,
          "252": 1.7748469114303589,
          "253": -0.4532041847705841,
          "254": 0.7559493184089661,
          "255": 0.1649218052625656,
          "256": -1.983066201210022,
          "257": 0.1534581184387207,
          "258": -0.28654083609580994,
          "259": 1.4164605140686035,
          "260": -0.8057023286819458,
          "261": -1.2843127250671387,
          "262": 1.1367822885513306,
          "263": -0.83184415102005,
          "264": 1.1508960723876953,
          "265": -1.7844897508621216,
          "266": 1.0684741735458374,
          "267": 1.1256638765335083,
          "268": -0.12270229309797287,
          "269": -1.2011308670043945,
          "270": 2.0313267707824707,
          "271": 0.3136414587497711,
          "272": 0.4264289140701294,
          "273": 1.8165215253829956,
          "274": -1.9327937364578247,
          "275": -0.3460327088832855,
          "276": -1.1117910146713257,
          "277": 2.7997920513153076,
          "278": 1.2304216623306274,
          "279": 0.35026004910469055,
          "280": -0.3274199366569519,
          "281": -0.00004179562893114053,
          "282": -2.3902430534362793,
          "283": -0.16977328062057495,
          "284": 0.6384045481681824,
          "285": -2.0193660259246826,
          "286": 1.9412981271743774,
          "287": 0.5816970467567444,
          "288": 2.1359329223632812,
          "289": -0.24461829662322998,
          "290": -1.6053457260131836,
          "291": -0.17918170988559723,
          "292": -0.7807230353355408,
          "293": -0.40149804949760437,
          "294": 1.047410249710083,
          "295": 0.5924100279808044,
          "296": 2.879220724105835,
          "297": 0.4614739418029785,
          "298": 2.060403347015381,
          "299": -1.222760796546936,
          "300": -0.36182305216789246,
          "301": -0.8552572727203369,
          "302": -0.21931181848049164,
          "303": 0.8148421049118042,
          "304": 0.05881593003869057,
          "305": -0.5403831005096436,
          "306": -1.5387030839920044,
          "307": 2.602355718612671,
          "308": -1.538076639175415,
          "309": -0.7775734066963196,
          "310": -1.8058748245239258,
          "311": -0.16142408549785614,
          "312": 0.9786369800567627,
          "313": -0.5765052437782288,
          "314": -0.12362047284841537,
          "315": 2.3847768306732178,
          "316": 0.11659163236618042,
          "317": 0.3457442820072174,
          "318": 1.5691032409667969,
          "319": 1.0781198740005493,
          "320": 0.4236041009426117,
          "321": -1.732261061668396,
          "322": -0.5286605954170227,
          "323": 1.6834378242492676,
          "324": -0.9158629775047302,
          "325": 2.0880391597747803,
          "326": -0.10809139907360077,
          "327": -0.11585133522748947,
          "328": -1.646735429763794,
          "329": -2.2951853275299072,
          "330": 0.2740204334259033,
          "331": -0.510737955570221,
          "332": -1.647577166557312,
          "333": 2.552739381790161,
          "334": 0.04731107875704765,
          "335": 0.5356082916259766,
          "336": -0.24466870725154877,
          "337": 0.123911552131176,
          "338": 1.9362080097198486,
          "339": -1.2371867895126343,
          "340": 0.22884204983711243,
          "341": 1.0147298574447632,
          "342": -0.18635839223861694,
          "343": -1.6486624479293823,
          "344": -0.10665322840213776,
          "345": -0.07604560256004333,
          "346": 0.20738966763019562,
          "347": -1.2319183349609375,
          "348": -0.0039306869730353355,
          "349": 3.333212375640869,
          "350": 1.4272540807724,
          "351": -1.0363372564315796,
          "352": -0.13023099303245544,
          "353": 0.11464007198810577,
          "354": 0.12005335837602615,
          "355": 0.38461121916770935,
          "356": 1.3045042753219604,
          "357": 0.6569478511810303,
          "358": 1.5512243509292603,
          "359": 0.7797491550445557,
          "360": 1.83650803565979,
          "361": -0.302920937538147,
          "362": -1.3444198369979858,
          "363": -1.6487164497375488,
          "364": -0.27081260085105896,
          "365": -0.23543588817119598,
          "366": -0.0015985482605174184,
          "367": -2.0251400470733643,
          "368": -2.0942890644073486,
          "369": -0.21684463322162628,
          "370": -2.0333895683288574,
          "371": -0.3824167847633362,
          "372": 0.46641820669174194,
          "373": -2.3773722648620605,
          "374": 0.6127793788909912,
          "375": -1.5612878799438477,
          "376": -0.12114563584327698,
          "377": 0.4268883466720581,
          "378": -0.3671473264694214,
          "379": 0.9091154932975769,
          "380": 3.733003616333008,
          "381": 0.9684267044067383,
          "382": 0.33868294954299927,
          "383": -4.014812469482422,
          "384": 2.2751564979553223,
          "385": -0.04431166872382164,
          "386": 0.04927768558263779,
          "387": 1.4153274297714233,
          "388": 0.3138553500175476,
          "389": 0.41636377573013306,
          "390": -0.592545211315155,
          "391": -0.0015578570310026407,
          "392": -1.3629472255706787,
          "393": -1.2261968851089478,
          "394": -3.182704448699951,
          "395": 1.0842928886413574,
          "396": 1.2138386964797974,
          "397": -0.501373291015625,
          "398": -2.1996572017669678,
          "399": 1.5631544589996338,
          "400": 1.1484442949295044,
          "401": -1.548688530921936,
          "402": 0.4536527097225189,
          "403": -0.7195024490356445,
          "404": -0.9655051827430725,
          "405": 0.558731734752655,
          "406": -1.4309310913085938,
          "407": -0.8724086880683899,
          "408": -0.4970525801181793,
          "409": 1.3435372114181519,
          "410": 0.118174247443676,
          "411": 2.4604759216308594,
          "412": -0.48424041271209717,
          "413": -2.284844398498535,
          "414": -1.452074646949768,
          "415": 1.0037199258804321,
          "416": -1.6293630599975586,
          "417": -1.1279480457305908,
          "418": -1.5656800270080566,
          "419": -0.06281445175409317,
          "420": 0.2986863851547241,
          "421": -0.6951345801353455,
          "422": 1.7662074565887451,
          "423": 0.05542296916246414,
          "424": 0.07922329753637314,
          "425": 0.8888645172119141,
          "426": 0.5561639070510864,
          "427": -0.25466999411582947,
          "428": -0.07758986204862595,
          "429": -0.09743231534957886,
          "430": -1.0412828922271729,
          "431": 2.2422196865081787,
          "432": -1.7887818813323975,
          "433": -1.5198832750320435,
          "434": 1.2503125667572021,
          "435": -3.7868196964263916,
          "436": 0.7484358549118042,
          "437": 0.11420176178216934,
          "438": 1.101337194442749,
          "439": 0.5067547559738159,
          "440": -0.7545778751373291,
          "441": 0.2750357389450073,
          "442": 2.379500150680542,
          "443": 0.6033313274383545,
          "444": 1.4433249235153198,
          "445": -0.16188597679138184,
          "446": 0.48648273944854736,
          "447": 0.7392157912254333,
          "448": 1.6063686609268188,
          "449": 1.3783761262893677,
          "450": 0.9732258319854736,
          "451": 0.5959515571594238,
          "452": 0.652888298034668,
          "453": 0.8080132603645325,
          "454": -1.3889803886413574,
          "455": -1.686538577079773,
          "456": -1.669897198677063,
          "457": 0.9807056784629822,
          "458": 1.7720359563827515,
          "459": -0.45702892541885376,
          "460": -1.572437047958374,
          "461": 0.5291667580604553,
          "462": -0.6742247343063354,
          "463": -2.0111029148101807,
          "464": -0.7517218589782715,
          "465": 1.7022935152053833,
          "466": 1.2308664321899414,
          "467": 2.8924343585968018,
          "468": 2.559971809387207,
          "469": 0.956702709197998,
          "470": -2.7204408645629883,
          "471": 1.77323317527771,
          "472": -3.1160435676574707,
          "473": -0.6134238243103027,
          "474": -0.20008869469165802,
          "475": -0.3817563056945801,
          "476": 2.358851194381714,
          "477": 0.80002361536026,
          "478": -0.6707421541213989,
          "479": 2.270920515060425,
          "480": 0.3038521707057953,
          "481": 0.2793474495410919,
          "482": -1.2157659530639648,
          "483": 0.7533177137374878,
          "484": -2.331146478652954,
          "485": -1.148039698600769,
          "486": 1.5220402479171753,
          "487": 0.5732784271240234,
          "488": -1.5659319162368774,
          "489": 0.7708048224449158,
          "490": 0.4759623110294342,
          "491": 0.006042102351784706,
          "492": -1.0398142337799072,
          "493": -1.008895754814148,
          "494": 0.5864183306694031,
          "495": -0.21646085381507874,
          "496": 2.7505040168762207,
          "497": -1.6577056646347046,
          "498": -0.24425023794174194,
          "499": 0.10831456631422043,
          "500": 0.6615839600563049,
          "501": -0.8759022951126099,
          "502": -2.3247416019439697,
          "503": 0.35863715410232544,
          "504": 3.143744468688965,
          "505": 1.2333837747573853,
          "506": 0.24774987995624542,
          "507": -0.4582723379135132,
          "508": 0.38528957962989807,
          "509": -0.09820052981376648,
          "510": 2.392821788787842,
          "511": 1.1538547277450562,
          "512": -0.11862049251794815,
          "513": 2.5929348468780518,
          "514": 0.7556647658348083,
          "515": 0.98516845703125,
          "516": -1.9341129064559937,
          "517": -0.6356516480445862,
          "518": -2.222766160964966,
          "519": 0.5010520815849304,
          "520": 1.7196317911148071,
          "521": -0.3831770420074463,
          "522": -2.3939015865325928,
          "523": -0.16239145398139954,
          "524": -0.9271034002304077,
          "525": -1.8786640167236328,
          "526": -0.7387668490409851,
          "527": -0.1290012151002884,
          "528": 3.498586893081665,
          "529": 1.314223289489746,
          "530": 0.2581126391887665,
          "531": -1.4345680475234985,
          "532": -1.0507320165634155,
          "533": 1.9132951498031616,
          "534": -1.0677562952041626,
          "535": 2.0863146781921387,
          "536": -0.8628854751586914,
          "537": -2.2317588329315186,
          "538": 1.2711176872253418,
          "539": -0.3324732780456543,
          "540": -0.5204812288284302,
          "541": -1.4286329746246338,
          "542": -0.9088759422302246,
          "543": -0.13622914254665375,
          "544": 0.3459925949573517,
          "545": -0.5391619801521301,
          "546": -1.4637519121170044,
          "547": -2.226043462753296,
          "548": 2.158447504043579,
          "549": -0.2846980690956116,
          "550": 0.4202731251716614,
          "551": -0.16168075799942017,
          "552": 1.5236221551895142,
          "553": -1.6864113807678223,
          "554": 3.8025431632995605,
          "555": -1.47922945022583,
          "556": 0.2489815503358841,
          "557": 2.351926565170288,
          "558": -0.4813120663166046,
          "559": -1.7545650005340576,
          "560": 0.06649063527584076,
          "561": 0.26649099588394165,
          "562": 1.1555860042572021,
          "563": 0.15704193711280823,
          "564": 1.2527883052825928,
          "565": -1.8885236978530884,
          "566": -0.1476358324289322,
          "567": 1.8073853254318237,
          "568": 0.7513618469238281,
          "569": 0.052447374910116196,
          "570": 1.0878504514694214,
          "571": 1.1732456684112549,
          "572": -0.5512732863426208,
          "573": -0.2061537802219391,
          "574": -0.5533881783485413,
          "575": -0.22550365328788757,
          "576": -0.08274068683385849,
          "577": 1.241187334060669,
          "578": -0.8923118114471436,
          "579": -1.4989211559295654,
          "580": 0.06315629929304123,
          "581": 0.22321884334087372,
          "582": -0.4773525297641754,
          "583": 1.5155272483825684,
          "584": -0.9783204197883606,
          "585": 0.5442840456962585,
          "586": 0.7759975790977478,
          "587": 1.8507081270217896,
          "588": 2.6668388843536377,
          "589": 0.42660513520240784,
          "590": -2.160965919494629,
          "591": 2.2621994018554688,
          "592": 0.31307196617126465,
          "593": 2.2868812084198,
          "594": 1.4411107301712036,
          "595": -0.36595776677131653,
          "596": 1.069802165031433,
          "597": -2.495206594467163,
          "598": 1.2137271165847778,
          "599": 1.8075474500656128,
          "600": 0.9596896767616272,
          "601": 0.24884529411792755,
          "602": 1.8462013006210327,
          "603": -0.5706759095191956,
          "604": 1.1071748733520508,
          "605": -3.14640474319458,
          "606": -1.3699250221252441,
          "607": -0.8409905433654785,
          "608": -0.4748377501964569,
          "609": 1.7100481986999512,
          "610": -1.4347660541534424,
          "611": 0.5264437198638916,
          "612": -1.4645761251449585,
          "613": 0.15720410645008087,
          "614": -0.44589003920555115,
          "615": 0.861354410648346,
          "616": -1.2601263523101807,
          "617": -0.9372690916061401,
          "618": 0.986975371837616,
          "619": -0.05901435762643814
        }
      },
      "forgetHidden": {
        "rows": 20,
        "columns": 20,
        "weights": {
          "0": 0.3244348466396332,
          "1": 1.5862550735473633,
          "2": -0.5998740196228027,
          "3": -1.0750612020492554,
          "4": 0.6875848770141602,
          "5": -0.10530468821525574,
          "6": -0.7685003876686096,
          "7": 2.072166919708252,
          "8": -0.37276214361190796,
          "9": -0.27197688817977905,
          "10": 0.34714287519454956,
          "11": 0.19050724804401398,
          "12": -1.3110599517822266,
          "13": -1.3243931531906128,
          "14": -1.075868844985962,
          "15": 3.0533785820007324,
          "16": 1.9133967161178589,
          "17": 0.2656131684780121,
          "18": -1.2510641813278198,
          "19": -1.407387375831604,
          "20": 3.1648635864257812,
          "21": -1.0033622980117798,
          "22": 1.8381105661392212,
          "23": -0.32914626598358154,
          "24": -0.6962734460830688,
          "25": 0.5952204465866089,
          "26": -0.5055183172225952,
          "27": 3.194972276687622,
          "28": 1.6816927194595337,
          "29": 0.14614936709403992,
          "30": 3.090595006942749,
          "31": -2.147902488708496,
          "32": -0.9995522499084473,
          "33": -0.8736395239830017,
          "34": -2.481693744659424,
          "35": 0.5119089484214783,
          "36": 1.1731387376785278,
          "37": -2.534233331680298,
          "38": 3.1121737957000732,
          "39": 4.197952747344971,
          "40": 0.32412877678871155,
          "41": -2.5144269466400146,
          "42": 0.49297359585762024,
          "43": -2.1161320209503174,
          "44": -0.2687426507472992,
          "45": 0.9007449150085449,
          "46": 1.2590384483337402,
          "47": 0.35269516706466675,
          "48": 0.10177505761384964,
          "49": 0.006830996368080378,
          "50": 1.0457735061645508,
          "51": -2.7008893489837646,
          "52": 2.9989564418792725,
          "53": 1.6344467401504517,
