{
  "type": "LSTM",
  "options": {
    "inputSize": 31,
    "inputRange": 31,
    "hiddenSizes": [
      20,
      20
    ],
    "outputSize": 31,
    "learningRate": 0.01,
    "decayRate": 0.999,
    "smoothEps": 1e-8,
    "regc": 0.000001,
    "clipval": 5,
    "json": null,
    "dataFormatter": {
      "values": [
        "buy me a laptop",
        "code",
        "computer",
        "drive",
        "hardware",
        "i broke my pc",
        "i found some bugs in the code",
        "i love computers",
        "i love to play games",
        "i need a new power supply",
        "i swapped the memory",
        "i tested the code",
        "it needs more memory",
        "my unit test failed",
        "power supply",
        "program",
        "programming",
        "software",
        "the drive has a 2TB capacity",
        "tried the program, but it was buggy",
        "unit-tests"
      ],
      "indexTable": {
        "2": 23,
        "b": 0,
        "u": 1,
        "y": 2,
        " ": 3,
        "m": 4,
        "e": 5,
        "a": 6,
        "l": 7,
        "p": 8,
        "t": 9,
        "o": 10,
        "c": 11,
        "d": 12,
        "r": 13,
        "i": 14,
        "v": 15,
        "h": 16,
        "w": 17,
        "k": 18,
        "f": 19,
        "n": 20,
        "s": 21,
        "g": 22,
        "T": 24,
        "B": 25,
        ",": 26,
        "-": 27,
        "stop-input": 28,
        "start-output": 29,
        "unrecognized": 30
      },
      "characterTable": {
        "0": "b",
        "1": "u",
        "2": "y",
        "3": " ",
        "4": "m",
        "5": "e",
        "6": "a",
        "7": "l",
        "8": "p",
        "9": "t",
        "10": "o",
        "11": "c",
        "12": "d",
        "13": "r",
        "14": "i",
        "15": "v",
        "16": "h",
        "17": "w",
        "18": "k",
        "19": "f",
        "20": "n",
        "21": "s",
        "22": "g",
        "23": "2",
        "24": "T",
        "25": "B",
        "26": ",",
        "27": "-",
        "28": "stop-input",
        "29": "start-output",
        "30": "unrecognized"
      },
      "characters": [
        "b",
        "u",
        "y",
        " ",
        "m",
        "e",
        "a",
        "l",
        "p",
        "t",
        "o",
        "c",
        "d",
        "r",
        "i",
        "v",
        "h",
        "w",
        "k",
        "f",
        "n",
        "s",
        "g",
        "2",
        "T",
        "B",
        ",",
        "-",
        "stop-input",
        "start-output",
        "unrecognized"
      ]
    }
  },
  "input": {
    "rows": 32,
    "columns": 31,
    "weights": {
      "0": -0.6929380893707275,
      "1": -0.14708489179611206,
      "2": 0.15155485272407532,
      "3": -1.382093071937561,
      "4": 1.1441715955734253,
      "5": 1.914200782775879,
      "6": 1.0004500150680542,
      "7": 0.5456570982933044,
      "8": -2.5277488231658936,
      "9": -1.0730607509613037,
      "10": 1.1749588251113892,
      "11": 1.8005346059799194,
      "12": -1.1587953567504883,
      "13": 0.7364784479141235,
      "14": 0.4775894582271576,
      "15": 0.9109321236610413,
      "16": 0.7453023195266724,
      "17": -1.8459492921829224,
      "18": -0.9508307576179504,
      "19": 0.7040978670120239,
      "20": -2.363884449005127,
      "21": 0.10917086154222488,
      "22": 1.065778136253357,
      "23": -0.8108369708061218,
      "24": 0.4322713017463684,
      "25": 0.5696952939033508,
      "26": -1.5201181173324585,
      "27": 0.26746228337287903,
      "28": 1.396675944328308,
      "29": -2.2661590576171875,
      "30": 0.9413411617279053,
      "31": -0.7726856470108032,
      "32": -0.3921798765659332,
      "33": 0.43305861949920654,
      "34": 0.3287477493286133,
      "35": 2.2924575805664062,
      "36": 5.107908248901367,
      "37": 1.5794024467468262,
      "38": 3.342719316482544,
      "39": 0.8948567509651184,
      "40": 0.9285359382629395,
      "41": -3.03511643409729,
      "42": 1.7103264331817627,
      "43": -4.098169326782227,
      "44": 5.122513294219971,
      "45": -1.7393893003463745,
      "46": 2.085451126098633,
      "47": -5.743971347808838,
      "48": -3.695929527282715,
      "49": -4.426488399505615,
      "50": -5.2638444900512695,
      "51": -2.349860191345215,
      "52": 2.5859615802764893,
      "53": 0.286015123128891,
      "54": 4.784242630004883,
      "55": -2.2842295169830322,
      "56": 1.2576756477355957,
      "57": -1.7466259002685547,
      "58": -0.335506796836853,
      "59": 1.245990514755249,
      "60": 0.22331763803958893,
      "61": 2.935580253601074,
      "62": 0.4278355836868286,
      "63": -0.755540668964386,
      "64": 3.518669366836548,
      "65": 0.20065376162528992,
      "66": -1.5538177490234375,
      "67": -0.4397139251232147,
      "68": 0.1499825119972229,
      "69": 4.109264373779297,
      "70": -1.368363857269287,
      "71": -2.9405722618103027,
      "72": -6.776341915130615,
      "73": 0.6219668388366699,
      "74": 2.2407760620117188,
      "75": 1.3557685613632202,
      "76": -1.4839272499084473,
      "77": -1.4758028984069824,
      "78": 0.618647038936615,
      "79": 0.5701033473014832,
      "80": -0.301798015832901,
      "81": 0.5103449821472168,
      "82": 0.40636420249938965,
      "83": 1.4625076055526733,
      "84": -4.218888759613037,
      "85": 2.136871576309204,
      "86": 2.298099994659424,
      "87": 1.4556922912597656,
      "88": 5.784952163696289,
      "89": 5.7801194190979,
      "90": 0.662255585193634,
      "91": 2.17756986618042,
      "92": -2.4839749336242676,
      "93": 1.184389352798462,
      "94": -1.7808985710144043,
      "95": 1.2853628396987915,
      "96": -1.7487479448318481,
      "97": -1.1858762502670288,
      "98": 1.5222126245498657,
      "99": -2.088724136352539,
      "100": 1.1853890419006348,
      "101": 2.170941114425659,
      "102": 3.3441035747528076,
      "103": 1.0324777364730835,
      "104": -0.17388197779655457,
      "105": -5.117968559265137,
      "106": 0.33877766132354736,
      "107": -0.38472962379455566,
      "108": -0.0652528628706932,
      "109": 0.602581262588501,
      "110": 1.0384578704833984,
      "111": -3.9075515270233154,
      "112": -1.4138121604919434,
      "113": -1.0446410179138184,
      "114": -0.12838491797447205,
      "115": -0.33872929215431213,
      "116": 0.47529494762420654,
      "117": 1.439433217048645,
      "118": -1.1345188617706299,
      "119": -5.675518989562988,
      "120": 0.7898058295249939,
      "121": -1.78697669506073,
      "122": -1.6565762758255005,
      "123": 1.2454646825790405,
      "124": -2.858656406402588,
      "125": 1.310671329498291,
      "126": -2.3740792274475098,
      "127": -0.661199688911438,
      "128": -0.02103903703391552,
      "129": 0.17991912364959717,
      "130": 0.862324059009552,
      "131": -1.9513758420944214,
      "132": -0.5158630013465881,
      "133": -1.8605985641479492,
      "134": 0.025794781744480133,
      "135": 2.7780964374542236,
      "136": -1.2901965379714966,
      "137": -1.9857258796691895,
      "138": 1.7284376621246338,
      "139": -3.010787010192871,
      "140": 0.1521197110414505,
      "141": -1.7079218626022339,
      "142": -1.7523995637893677,
      "143": -1.8066167831420898,
      "144": -1.8124504089355469,
      "145": 0.02010039985179901,
      "146": 1.0802682638168335,
      "147": -0.2598399519920349,
      "148": -0.194023996591568,
      "149": 0.9741296172142029,
      "150": -2.166792154312134,
      "151": -1.345868468284607,
      "152": 1.0215981006622314,
      "153": 0.661651074886322,
      "154": 1.2261656522750854,
      "155": -0.831170380115509,
      "156": 2.286172389984131,
      "157": 1.036574363708496,
      "158": -1.2100887298583984,
      "159": 4.355369567871094,
      "160": -0.8301246166229248,
      "161": 2.4009015560150146,
      "162": 1.249812364578247,
      "163": -1.239984393119812,
      "164": -2.809500217437744,
      "165": -0.41732296347618103,
      "166": -0.47475042939186096,
      "167": -1.6696802377700806,
      "168": -2.205080509185791,
      "169": 2.26937198638916,
      "170": -4.462539196014404,
      "171": 0.5225611925125122,
      "172": -3.0714547634124756,
      "173": -0.02283358946442604,
      "174": -2.3906948566436768,
      "175": 1.6944611072540283,
      "176": -2.425067186355591,
      "177": -2.285743236541748,
      "178": 3.54593825340271,
      "179": -1.1811226606369019,
      "180": 2.720414161682129,
      "181": -3.520657777786255,
      "182": -4.042260646820068,
      "183": -1.33338463306427,
      "184": -1.2148704528808594,
      "185": -0.31615111231803894,
      "186": -0.15529271960258484,
      "187": 0.5845527648925781,
      "188": -0.08384476602077484,
      "189": -0.264904648065567,
      "190": 0.6276783347129822,
      "191": 0.9419506192207336,
      "192": 0.10970808565616608,
      "193": -0.13242153823375702,
      "194": -0.14008405804634094,
      "195": -1.4153389930725098,
      "196": 0.3863774836063385,
      "197": 3.029812812805176,
      "198": 0.416991651058197,
      "199": 0.23996257781982422,
      "200": 0.1735011488199234,
      "201": -2.0719759464263916,
      "202": -0.6471887826919556,
      "203": -1.319370985031128,
      "204": -0.010231397114694118,
      "205": -1.1514701843261719,
      "206": -0.029911398887634277,
      "207": -0.198542520403862,
      "208": -1.3052078485488892,
      "209": 0.6081076264381409,
      "210": -0.8678887486457825,
      "211": 0.22892563045024872,
      "212": 0.022998740896582603,
      "213": -0.049424849450588226,
      "214": -0.023818008601665497,
      "215": 0.08576131612062454,
      "216": 0.02508353814482689,
      "217": -1.6007089614868164,
      "218": -0.8422043919563293,
      "219": -0.3442217707633972,
      "220": 0.39294812083244324,
      "221": 0.5857561230659485,
      "222": 0.16223356127738953,
      "223": 1.1173639297485352,
      "224": 1.1952012777328491,
      "225": 0.7728317975997925,
      "226": -0.15528887510299683,
      "227": -0.40169641375541687,
      "228": 2.8680522441864014,
      "229": -0.7168415188789368,
      "230": 0.270956426858902,
      "231": -0.9675270318984985,
      "232": 0.278456449508667,
      "233": -1.502720832824707,
      "234": -0.4832713007926941,
      "235": -1.0618219375610352,
      "236": 0.8036208748817444,
      "237": -1.3027440309524536,
      "238": -2.7206368446350098,
      "239": 0.9785382747650146,
      "240": 3.7243428230285645,
      "241": -2.7756452560424805,
      "242": -0.6524854302406311,
      "243": 1.0856106281280518,
      "244": 0.3827008008956909,
      "245": -2.352492570877075,
      "246": 0.5489621758460999,
      "247": 0.9707634449005127,
      "248": -0.3579861521720886,
      "249": -0.6250854134559631,
      "250": -3.3718295097351074,
      "251": -2.517570734024048,
      "252": -3.407505512237549,
      "253": -3.1764299869537354,
      "254": -2.426009178161621,
      "255": 2.2504310607910156,
      "256": -0.16436566412448883,
      "257": 3.6252329349517822,
      "258": -2.4171290397644043,
      "259": -6.065948963165283,
      "260": 2.0942599773406982,
      "261": 0.5076849460601807,
      "262": 5.8091139793396,
      "263": 0.27664729952812195,
      "264": 6.019804954528809,
      "265": -0.7499969601631165,
      "266": -2.099308490753174,
      "267": -2.1359384059906006,
      "268": 0.014812820591032505,
      "269": 2.130741834640503,
      "270": 3.096750259399414,
      "271": -3.449237108230591,
      "272": 3.1011340618133545,
      "273": -3.4645678997039795,
      "274": -3.2925760746002197,
      "275": -2.2137093544006348,
      "276": 2.648266077041626,
      "277": -0.37212684750556946,
      "278": 2.698172092437744,
      "279": 2.053619861602783,
      "280": -3.7603204250335693,
      "281": -1.034698247909546,
      "282": 0.7185407876968384,
      "283": 0.20432840287685394,
      "284": 0.25131794810295105,
      "285": -0.7357470989227295,
      "286": 1.2968981266021729,
      "287": 1.6073377132415771,
      "288": 5.407367706298828,
      "289": 1.3344130516052246,
      "290": -0.21080394089221954,
      "291": -3.151562213897705,
      "292": 2.473898410797119,
      "293": -4.257076740264893,
      "294": -2.781341552734375,
      "295": -1.0794225931167603,
      "296": 2.18476939201355,
      "297": 1.6836026906967163,
      "298": -0.9872382283210754,
      "299": 0.7016791105270386,
      "300": -2.4646852016448975,
      "301": 1.8255075216293335,
      "302": -0.7094575762748718,
      "303": -4.112677574157715,
      "304": -0.7470012307167053,
      "305": -1.2525882720947266,
      "306": 0.8379266262054443,
      "307": -3.260295867919922,
      "308": 0.14114831387996674,
      "309": -1.160962462425232,
      "310": -1.9533610343933105,
      "311": -1.5566256046295166,
      "312": -0.7530407309532166,
      "313": 0.1314152330160141,
      "314": -1.457378625869751,
      "315": -0.864471971988678,
      "316": -3.2128093242645264,
      "317": 0.09474004060029984,
      "318": 0.5439792275428772,
      "319": 2.7429869174957275,
      "320": 2.2379231452941895,
      "321": -0.8913448452949524,
      "322": -1.0465528964996338,
      "323": -0.7245169281959534,
      "324": -0.8018172979354858,
      "325": 1.0216193199157715,
      "326": 0.5294031500816345,
      "327": 0.3733043670654297,
      "328": -0.0036351827438920736,
      "329": 0.8911556005477905,
      "330": -1.3016927242279053,
      "331": 0.6669114232063293,
      "332": 2.7973337173461914,
      "333": -1.4211952686309814,
      "334": -0.723176896572113,
      "335": -0.9181964993476868,
      "336": -0.5560656785964966,
      "337": 0.352810800075531,
      "338": 0.48522886633872986,
      "339": -0.6016178131103516,
      "340": 2.484328269958496,
      "341": 1.322087287902832,
      "342": -0.20894916355609894,
      "343": 0.791088879108429,
      "344": 0.610542356967926,
      "345": 1.432165503501892,
      "346": 0.16854318976402283,
      "347": 0.5130650997161865,
      "348": 1.0963709354400635,
      "349": -0.8319298028945923,
      "350": 2.194723606109619,
      "351": -0.11666187644004822,
      "352": 1.6532188653945923,
      "353": -1.4993499517440796,
      "354": 1.1068601608276367,
      "355": -0.4917159080505371,
      "356": -3.0777902603149414,
      "357": 0.5299771428108215,
      "358": -0.4992883503437042,
      "359": 1.8160279989242554,
      "360": -0.22781170904636383,
      "361": 1.596205711364746,
      "362": 0.4591618478298187,
      "363": -3.4716989994049072,
      "364": 0.9343041777610779,
      "365": -1.693876028060913,
      "366": 0.48227208852767944,
      "367": -2.191742181777954,
      "368": -0.08812862634658813,
      "369": 1.3299325704574585,
      "370": -1.0706723928451538,
      "371": -1.303848147392273,
      "372": -4.246935844421387,
      "373": 2.7817742824554443,
      "374": -4.340813636779785,
      "375": 1.0148212909698486,
      "376": -1.4347904920578003,
      "377": -4.2718610763549805,
      "378": -0.10215423256158829,
      "379": 0.042499370872974396,
      "380": -0.885376513004303,
      "381": -5.121744155883789,
      "382": -1.4048891067504883,
      "383": 1.2077494859695435,
      "384": 3.3328187465667725,
      "385": -1.3792240619659424,
      "386": 2.8241117000579834,
      "387": 4.5285539627075195,
      "388": -0.4299129545688629,
      "389": -0.8105823993682861,
      "390": 2.069705009460449,
      "391": -1.156463623046875,
      "392": 1.622118353843689,
      "393": -0.464251309633255,
      "394": 0.038864392787218094,
      "395": 7.922940254211426,
      "396": -0.27214446663856506,
      "397": -1.7864346504211426,
      "398": 5.32857608795166,
      "399": -2.744908094406128,
      "400": -1.7814966440200806,
      "401": 8.011079788208008,
      "402": 2.1331605911254883,
      "403": -4.251074314117432,
      "404": 0.0053323316387832165,
      "405": -1.2907124757766724,
      "406": -1.0613460540771484,
      "407": -2.1304705142974854,
      "408": -1.839722752571106,
      "409": -4.412075519561768,
      "410": 3.7699692249298096,
      "411": 1.1057159900665283,
      "412": -0.40247344970703125,
      "413": 2.667628526687622,
      "414": -0.3963489234447479,
      "415": 1.6138041019439697,
      "416": -1.3394821882247925,
      "417": 1.8453224897384644,
      "418": -0.9328625202178955,
      "419": 0.7121553421020508,
      "420": -1.4361672401428223,
      "421": -0.6181167960166931,
      "422": -1.4243006706237793,
      "423": -1.6243842840194702,
      "424": 0.5882065296173096,
      "425": 2.197892665863037,
      "426": 0.3247726559638977,
      "427": -0.7435383200645447,
      "428": -2.538118839263916,
      "429": -0.41568583250045776,
      "430": 1.2875851392745972,
      "431": 0.2544175088405609,
      "432": 0.015702465549111366,
      "433": 1.4917114973068237,
      "434": 0.6945164203643799,
      "435": -0.19012674689292908,
      "436": -0.36405840516090393,
      "437": -1.0350935459136963,
      "438": -0.6582372188568115,
      "439": -1.3192470073699951,
      "440": -0.5466295480728149,
      "441": 0.6243322491645813,
      "442": -0.3904636800289154,
      "443": 1.7319363355636597,
      "444": -0.5042302012443542,
      "445": -3.1210930347442627,
      "446": 1.0108104944229126,
      "447": -0.9783345460891724,
      "448": 0.9874011278152466,
      "449": -0.5795944333076477,
      "450": 1.202297568321228,
      "451": 1.3208065032958984,
      "452": 0.14712154865264893,
      "453": 0.5657153725624084,
      "454": 0.5865923762321472,
      "455": -1.003816843032837,
      "456": 0.4643787443637848,
      "457": -2.0007877349853516,
      "458": 0.9318930506706238,
      "459": -0.733755886554718,
      "460": 1.4916647672653198,
      "461": 0.7556418180465698,
      "462": -1.6298829317092896,
      "463": 0.43007177114486694,
      "464": -0.5050861835479736,
      "465": 0.9497808218002319,
      "466": 0.733633816242218,
      "467": -0.54228276014328,
      "468": 0.7788262963294983,
      "469": -1.068077564239502,
      "470": 4.374339580535889,
      "471": 0.031120168045163155,
      "472": 0.7034263014793396,
      "473": -2.5251262187957764,
      "474": 2.4303243160247803,
      "475": -3.3618433475494385,
      "476": 2.051781177520752,
      "477": -4.1271653175354,
      "478": 2.975257635116577,
      "479": -0.019774021580815315,
      "480": -0.9536387324333191,
      "481": 0.49256986379623413,
      "482": -1.1099756956100464,
      "483": -0.6655183434486389,
      "484": -1.7636457681655884,
      "485": 0.5235616564750671,
      "486": 2.4164085388183594,
      "487": -0.9807335734367371,
      "488": -4.651805877685547,
      "489": -0.3680899739265442,
      "490": -0.19375784695148468,
      "491": 0.9268031716346741,
      "492": 0.39367175102233887,
      "493": 1.143778920173645,
      "494": 2.4416286945343018,
      "495": -0.20819847285747528,
      "496": 4.040187835693359,
      "497": -5.53432559967041,
      "498": -4.652212619781494,
      "499": 1.5482854843139648,
      "500": -6.45854377746582,
      "501": 0.8380597233772278,
      "502": -2.753584384918213,
      "503": 4.042884826660156,
      "504": -3.2237677574157715,
      "505": 4.530488967895508,
      "506": -6.3883137702941895,
      "507": -3.2929046154022217,
      "508": 3.1207292079925537,
      "509": 0.06224643066525459,
      "510": 0.2925556004047394,
      "511": -1.9493961334228516,
      "512": 5.094694137573242,
      "513": 0.1448519378900528,
      "514": 1.0681047439575195,
      "515": -1.9329047203063965,
      "516": -3.9499776363372803,
      "517": 5.014352798461914,
      "518": 1.1562420129776,
      "519": -5.1262054443359375,
      "520": -0.2631804645061493,
      "521": -3.210374593734741,
      "522": 2.324660062789917,
      "523": 0.8823760151863098,
      "524": 4.230299949645996,
      "525": 1.7501401901245117,
      "526": 3.137162923812866,
      "527": 2.0572147369384766,
      "528": -0.2913627326488495,
      "529": 4.0762104988098145,
      "530": 1.9807476997375488,
      "531": 0.9982689023017883,
      "532": -0.8247516751289368,
      "533": 1.503393530845642,
      "534": 0.5169440507888794,
      "535": -0.9468665719032288,
      "536": -0.579078197479248,
      "537": -0.0980311706662178,
      "538": -0.7262360453605652,
      "539": 1.286354660987854,
      "540": -0.4668770730495453,
      "541": 0.2876999080181122,
      "542": 0.7930699586868286,
      "543": 0.3154985308647156,
      "544": 0.3624296486377716,
      "545": 2.4388010501861572,
      "546": 1.2035802602767944,
      "547": 2.6000149250030518,
      "548": 0.4330252408981323,
      "549": -2.1853184700012207,
      "550": 0.09928956627845764,
      "551": 0.01582064852118492,
      "552": 1.9729533195495605,
      "553": 0.10688947141170502,
      "554": -0.5981673002243042,
      "555": 2.2540123462677,
      "556": -0.6139117479324341,
      "557": -3.0063681602478027,
      "558": 1.088229775428772,
      "559": -0.018684906885027885,
      "560": 1.8914216756820679,
      "561": -0.05212575942277908,
      "562": 1.068032145500183,
      "563": -0.12048745900392532,
      "564": 1.7131110429763794,
      "565": 0.7639284729957581,
      "566": 1.2513422966003418,
      "567": 0.42386773228645325,
      "568": -0.41573598980903625,
      "569": -0.5772859454154968,
      "570": -0.4056524932384491,
      "571": -0.3509010672569275,
      "572": -2.3221640586853027,
      "573": 0.48017674684524536,
      "574": -3.2556989192962646,
      "575": 0.5537188649177551,
      "576": -0.49285194277763367,
      "577": 0.3452344834804535,
      "578": 0.20785759389400482,
      "579": -1.7101470232009888,
      "580": -0.715803325176239,
      "581": 0.7758079767227173,
      "582": -0.7321372032165527,
      "583": 1.1959291696548462,
      "584": 1.7180994749069214,
      "585": 0.6643980741500854,
      "586": -2.1468007564544678,
      "587": 0.6575523614883423,
      "588": -1.649285078048706,
      "589": 7.864678382873535,
      "590": 2.381568670272827,
      "591": 1.0048532485961914,
      "592": 7.6239519119262695,
      "593": -8.402667045593262,
      "594": -11.314759254455566,
      "595": 0.9386743307113647,
      "596": 1.2385363578796387,
      "597": 11.409631729125977,
      "598": 2.0508017539978027,
      "599": -0.5022820830345154,
      "600": -19.75702667236328,
      "601": 14.716129302978516,
      "602": 0.9628239274024963,
      "603": -2.6382484436035156,
      "604": 5.083518028259277,
      "605": 6.41422700881958,
      "606": 10.496012687683105,
      "607": 4.5610032081604,
      "608": 12.100186347961426,
      "609": 5.356583595275879,
      "610": 10.171609878540039,
      "611": -1.0226157903671265,
      "612": -8.657228469848633,
      "613": 7.852877616882324,
      "614": -0.4665578007698059,
      "615": 12.230426788330078,
      "616": 2.5995993614196777,
      "617": 3.48087477684021,
      "618": 4.616721153259277,
      "619": -5.608902454376221,
      "620": 2.3356337547302246,
      "621": -0.8751795887947083,
      "622": 0.7007912993431091,
      "623": -1.3670004606246948,
      "624": 2.2123022079467773,
      "625": 2.077651023864746,
      "626": 2.948284387588501,
      "627": 0.1207159161567688,
      "628": 1.4615111351013184,
      "629": -0.4150846004486084,
      "630": 2.4805238246917725,
      "631": -0.03444280847907066,
      "632": -1.885347604751587,
      "633": 3.4472241401672363,
      "634": -0.12383631616830826,
      "635": 3.8621907234191895,
      "636": -2.5014474391937256,
      "637": -0.15776854753494263,
      "638": -2.987468719482422,
      "639": -2.057664155960083,
      "640": -1.3864891529083252,
      "641": -1.12420654296875,
      "642": 1.1092815399169922,
      "643": 1.0861095190048218,
      "644": 1.2549962997436523,
      "645": -3.2125067710876465,
      "646": 0.5138366222381592,
      "647": -0.44435715675354004,
      "648": -2.565871477127075,
      "649": 1.3780597448349,
      "650": 1.113895058631897,
      "651": -4.662515640258789,
      "652": -1.5306389331817627,
      "653": -3.3385801315307617,
      "654": 2.9237680435180664,
      "655": 1.718950867652893,
      "656": -2.1320366859436035,
      "657": -0.7243374586105347,
      "658": -0.17253386974334717,
      "659": 1.8979666233062744,
      "660": -0.5313237309455872,
      "661": 5.219589710235596,
      "662": -1.7229857444763184,
      "663": -1.9439945220947266,
      "664": -1.5110496282577515,
      "665": -1.9503082036972046,
      "666": -3.130307674407959,
      "667": -2.301227569580078,
      "668": -1.4319697618484497,
      "669": -0.5308722853660583,
      "670": -0.1421220302581787,
      "671": -4.373507499694824,
      "672": -2.823267698287964,
      "673": 2.9676802158355713,
      "674": 0.8244470953941345,
      "675": -3.87384295463562,
      "676": -1.6263718605041504,
      "677": -5.242048740386963,
      "678": -0.7972186803817749,
      "679": -3.4487926959991455,
      "680": -0.3428061008453369,
      "681": 3.8705697059631348,
      "682": 0.6323073506355286,
      "683": 1.3430240154266357,
      "684": -0.2154131978750229,
      "685": 1.6661547422409058,
      "686": 0.7123948335647583,
      "687": -0.5095247030258179,
      "688": 0.1355649083852768,
      "689": -2.6569015979766846,
      "690": 0.44946232438087463,
      "691": -0.6470391750335693,
      "692": 1.7070127725601196,
      "693": -0.49692341685295105,
      "694": 0.15128225088119507,
      "695": 2.101825475692749,
      "696": -0.5227838754653931,
      "697": 1.4008984565734863,
      "698": -0.23760443925857544,
      "699": -1.501608967781067,
      "700": 4.100462913513184,
      "701": -0.7662413716316223,
      "702": 1.1823252439498901,
      "703": 1.0451692342758179,
      "704": 0.8482974767684937,
      "705": -0.6543064117431641,
      "706": -1.645641565322876,
      "707": 0.5397456288337708,
      "708": 0.5719978213310242,
      "709": 1.075700044631958,
      "710": 1.3866597414016724,
      "711": 3.1948370933532715,
      "712": -0.3576417863368988,
      "713": 2.730417490005493,
      "714": 1.6101853847503662,
      "715": 1.4260097742080688,
      "716": 0.18144482374191284,
      "717": 3.5559160709381104,
      "718": 1.1497663259506226,
      "719": -1.492235541343689,
      "720": -3.1995863914489746,
      "721": 2.6094110012054443,
      "722": 0.011682695709168911,
      "723": 1.4645030498504639,
      "724": -0.13372410833835602,
      "725": -5.359623432159424,
      "726": -2.4476873874664307,
      "727": -2.6752569675445557,
      "728": -3.3664002418518066,
      "729": -2.1056313514709473,
      "730": 2.532855987548828,
      "731": -5.544745445251465,
      "732": 0.9767087697982788,
      "733": -3.3852035999298096,
      "734": -2.3253097534179688,
      "735": -0.12785691022872925,
      "736": -2.53654408454895,
      "737": 0.17851310968399048,
      "738": 1.944305181503296,
      "739": -2.551697254180908,
      "740": -0.9285334944725037,
      "741": -2.8167788982391357,
      "742": -2.2197744846343994,
      "743": -1.2507387399673462,
      "744": 7.106512546539307,
      "745": -6.3586602210998535,
      "746": 6.686409950256348,
      "747": 3.282252073287964,
      "748": 4.3248419761657715,
      "749": 10.825538635253906,
      "750": 5.7978644371032715,
      "751": -3.535449504852295,
      "752": -3.3746864795684814,
      "753": 5.154548645019531,
      "754": -2.917423963546753,
      "755": 6.703315258026123,
      "756": -0.7930273413658142,
      "757": 0.40489429235458374,
      "758": -13.128024101257324,
      "759": 0.08067072182893753,
      "760": -8.964123725891113,
      "761": -2.6263930797576904,
      "762": 2.96625018119812,
      "763": -3.1541285514831543,
      "764": -4.247644901275635,
      "765": 2.446110725402832,
      "766": -3.9050300121307373,
      "767": -1.2420217990875244,
      "768": -10.951323509216309,
      "769": 7.587118625640869,
      "770": -8.461316108703613,
      "771": -6.513646125793457,
      "772": 4.698322296142578,
      "773": 7.323304653167725,
      "774": -1.3483446836471558,
      "775": -6.3048295974731445,
      "776": -8.716031074523926,
      "777": -6.9387030601501465,
      "778": 4.527159690856934,
      "779": -9.916918754577637,
      "780": 4.707762718200684,
      "781": -4.3983988761901855,
      "782": 8.674737930297852,
      "783": 3.192211866378784,
      "784": -5.090206146240234,
      "785": 7.131631374359131,
      "786": 0.7704625129699707,
      "787": 7.564741611480713,
      "788": -5.637802600860596,
      "789": 13.472525596618652,
      "790": 10.360588073730469,
      "791": -1.2229331731796265,
      "792": -5.0894951820373535,
      "793": -1.6632119417190552,
      "794": 1.6034802198410034,
      "795": -12.135287284851074,
      "796": 1.9238711595535278,
      "797": 11.909976959228516,
      "798": -2.9811971187591553,
      "799": 4.5191826820373535,
      "800": -14.64262866973877,
      "801": 2.9684274196624756,
      "802": 1.130816102027893,
      "803": -3.8134307861328125,
      "804": 1.947055697441101,
      "805": 10.703669548034668,
      "806": 7.192381858825684,
      "807": -4.937910556793213,
      "808": 3.968543529510498,
      "809": 4.398039817810059,
      "810": -3.4830801486968994,
      "811": -0.5206342339515686,
      "812": -4.006026268005371,
      "813": 4.924921989440918,
      "814": -3.186403751373291,
      "815": 11.909758567810059,
      "816": 0.810067355632782,
      "817": 2.7910964488983154,
      "818": 2.5002498626708984,
      "819": 0.6174612641334534,
      "820": -1.3421320915222168,
      "821": 3.217496633529663,
      "822": 3.534514904022217,
      "823": 14.09433650970459,
      "824": 9.913403511047363,
      "825": 14.340018272399902,
      "826": -1.195938229560852,
      "827": 2.0753378868103027,
      "828": -1.4482448101043701,
      "829": -10.676362991333008,
      "830": -1.4152787923812866,
      "831": -5.061614513397217,
      "832": -10.125100135803223,
      "833": -6.6426777839660645,
      "834": 5.774932384490967,
      "835": -9.28742504119873,
      "836": 0.05674451217055321,
      "837": 2.652068853378296,
      "838": 6.112982273101807,
      "839": 8.829532623291016,
      "840": 9.350297927856445,
      "841": 2.6643877029418945,
      "842": -2.8196253776550293,
      "843": 3.6654508113861084,
      "844": -4.721039295196533,
      "845": 9.899812698364258,
      "846": -2.187009572982788,
      "847": -4.566773414611816,
      "848": -8.415464401245117,
      "849": -1.9921314716339111,
      "850": -14.03369426727295,
      "851": 3.0774331092834473,
      "852": -10.8131685256958,
      "853": -6.704427719116211,
      "854": -1.5600595474243164,
      "855": -2.251673460006714,
      "856": 5.116720199584961,
      "857": 8.862106323242188,
      "858": -2.1995131969451904,
      "859": -8.261385917663574,
      "860": -3.2843680381774902,
      "861": -0.7971608638763428,
      "862": 1.9623665809631348,
      "863": -6.329781532287598,
      "864": 0.5503731966018677,
      "865": -7.453703880310059,
      "866": 4.867535591125488,
      "867": -20.57815170288086,
      "868": 0.9621548652648926,
      "869": 4.708856582641602,
      "870": -5.350732326507568,
      "871": 4.835849285125732,
      "872": 4.823016166687012,
      "873": 5.761549949645996,
      "874": -0.24775898456573486,
      "875": -10.473172187805176,
      "876": -3.7406423091888428,
      "877": 2.690474510192871,
      "878": -7.1379923820495605,
      "879": 4.339174270629883,
      "880": -17.299863815307617,
      "881": 4.007989883422852,
      "882": -7.884756565093994,
      "883": -9.98189926147461,
      "884": -10.406830787658691,
      "885": 1.1152981519699097,
      "886": -2.796025276184082,
      "887": -7.438442707061768,
      "888": -2.750885486602783,
      "889": -0.5549063682556152,
      "890": -7.280849456787109,
      "891": -2.7181055545806885,
      "892": -5.945344924926758,
      "893": 1.2814239263534546,
      "894": -10.148391723632812,
      "895": -6.662379264831543,
      "896": 1.4179890155792236,
      "897": 8.395110130310059,
      "898": 2.0521726608276367,
      "899": -2.7665982246398926,
      "900": 0.7040205597877502,
      "901": -1.3839577436447144,
      "902": -2.022036075592041,
      "903": -0.6186493039131165,
      "904": 2.4980087280273438,
      "905": 0.284725546836853,
      "906": 0.7454391717910767,
      "907": -0.5088569521903992,
      "908": 0.37739720940589905,
      "909": -1.3254890441894531,
      "910": 1.3368723392486572,
      "911": 0.5116193890571594,
      "912": 0.36550772190093994,
      "913": 1.5462065935134888,
      "914": 0.524819552898407,
      "915": 2.8556559085845947,
      "916": -1.741533637046814,
      "917": -1.61173415184021,
      "918": 0.5687922239303589,
      "919": -2.607172727584839,
      "920": -0.16434521973133087,
      "921": 0.7869189977645874,
      "922": 1.1358152627944946,
      "923": 3.0473098754882812,
      "924": -0.7897810935974121,
      "925": -2.246739625930786,
      "926": 0.8188508749008179,
      "927": 1.0304360389709473,
      "928": -3.0667338371276855,
      "929": 2.9680655002593994,
      "930": 2.4746711254119873,
      "931": 0.40268194675445557,
      "932": 0.28277915716171265,
      "933": -0.999108612537384,
      "934": 0.7245688438415527,
      "935": 0.947714626789093,
      "936": 0.22654233872890472,
      "937": -1.382318139076233,
      "938": -1.763838291168213,
      "939": 0.614724338054657,
      "940": -1.3428343534469604,
      "941": -0.36420148611068726,
      "942": 1.1113032102584839,
      "943": 3.713500499725342,
      "944": -0.15119412541389465,
      "945": 3.0049192905426025,
      "946": 0.4009207487106323,
      "947": 0.08803810924291611,
      "948": 0.7688812613487244,
      "949": 0.5074620842933655,
      "950": 1.820651888847351,
      "951": 1.5244272947311401,
      "952": 0.5262981653213501,
      "953": -0.4529418647289276,
      "954": 0.44275474548339844,
      "955": -0.10461241751909256,
      "956": 3.016691207885742,
      "957": -1.8593553304672241,
      "958": 1.6673318147659302,
      "959": -0.27142369747161865,
      "960": -0.1482747346162796,
      "961": -0.0178785752505064,
      "962": 0.06743282079696655,
      "963": 0.020193593576550484,
      "964": -0.07215427607297897,
      "965": -0.06123708188533783,
      "966": 0.004930487368255854,
      "967": -0.005154114216566086,
      "968": 0.0730409175157547,
      "969": 0.07117986679077148,
      "970": 0.0558970682322979,
      "971": 0.01190953515470028,
      "972": -0.07527294754981995,
      "973": 0.06553462147712708,
      "974": 0.011044175364077091,
      "975": -0.06112949550151825,
      "976": 0.06818221509456635,
      "977": 0.04496880620718002,
      "978": 0.07614395022392273,
      "979": 0.009050827473402023,
      "980": -0.057810813188552856,
      "981": -0.0019292248180136085,
      "982": 0.030977115035057068,
      "983": -0.028297141194343567,
      "984": -0.06913359463214874,
      "985": -0.04612910374999046,
      "986": -0.007262782193720341,
      "987": -0.04493819549679756,
      "988": 0.06742426007986069,
      "989": 0.0409182645380497,
      "990": 0.0408584289252758,
      "991": -0.041104454547166824
    }
  },
  "hiddenLayers": [
    {
      "inputMatrix": {
        "rows": 20,
        "columns": 31,
        "weights": {
          "0": 0.8300899267196655,
          "1": -2.0155210494995117,
          "2": -0.8276663422584534,
          "3": -0.5729087591171265,
          "4": -1.7671416997909546,
          "5": 1.0612391233444214,
          "6": -1.5350316762924194,
          "7": 1.9117146730422974,
          "8": 0.21379782259464264,
          "9": 0.34098976850509644,
          "10": -1.1410917043685913,
          "11": -0.15168547630310059,
          "12": -1.490377426147461,
          "13": 0.6367244124412537,
          "14": 0.7504256367683411,
          "15": 2.646817922592163,
          "16": -0.6952399611473083,
          "17": 2.0345308780670166,
          "18": -2.361827850341797,
          "19": 0.5989589691162109,
          "20": -0.3317347466945648,
          "21": 0.08869796246290207,
          "22": 0.9576404094696045,
          "23": 1.4538116455078125,
          "24": 0.2962217926979065,
          "25": -1.7321444749832153,
          "26": 4.3245086669921875,
          "27": -0.15181072056293488,
          "28": -1.587908148765564,
          "29": 0.6149417757987976,
          "30": 0.1104583814740181,
          "31": 1.4861383438110352,
          "32": 0.20843520760536194,
          "33": 2.2390756607055664,
          "34": 0.672726035118103,
          "35": 0.99057537317276,
          "36": 0.04020100459456444,
          "37": -0.2157667577266693,
          "38": 0.3465883135795593,
          "39": 1.314525842666626,
          "40": 0.3062945008277893,
          "41": 0.9955443739891052,
          "42": -0.8034785985946655,
          "43": -2.8344428539276123,
          "44": -0.5183398723602295,
          "45": -1.128609299659729,
          "46": -1.2538902759552002,
          "47": -0.8165399432182312,
          "48": 0.7462905645370483,
          "49": 0.8780218958854675,
          "50": -2.6815459728240967,
          "51": 1.0950281620025635,
          "52": -0.8369425535202026,
          "53": -2.1238577365875244,
          "54": 0.6125885248184204,
          "55": -0.314849853515625,
          "56": 0.6849889755249023,
          "57": -2.4559640884399414,
          "58": -0.8959017395973206,
          "59": -0.5382964611053467,
          "60": -1.0115516185760498,
          "61": 0.11603608727455139,
          "62": 0.0018395172664895654,
          "63": -1.8464325666427612,
          "64": -1.1988554000854492,
          "65": -2.648656129837036,
          "66": -1.7086591720581055,
          "67": -1.2908384799957275,
          "68": 0.339188814163208,
          "69": -0.42922258377075195,
          "70": 0.9930769801139832,
          "71": 0.7103332877159119,
          "72": 1.8788384199142456,
          "73": -0.7921093702316284,
          "74": 0.15103819966316223,
          "75": -1.2501202821731567,
          "76": 3.69134783744812,
          "77": 1.3770639896392822,
          "78": 1.904368281364441,
          "79": 0.015887558460235596,
          "80": -2.1518349647521973,
          "81": -0.27097779512405396,
          "82": -1.0643908977508545,
          "83": 0.21461422741413116,
          "84": 2.2534372806549072,
          "85": -1.0098073482513428,
          "86": 0.523313581943512,
          "87": -1.5389404296875,
          "88": -2.3321101665496826,
          "89": -0.8314602971076965,
          "90": 0.7387700080871582,
          "91": -2.151744842529297,
          "92": 1.845610499382019,
          "93": -0.9486560225486755,
          "94": -3.411755084991455,
          "95": 0.008605065755546093,
          "96": 0.021976251155138016,
          "97": -1.1732698678970337,
          "98": -1.9674952030181885,
          "99": -2.572166681289673,
          "100": 1.7174327373504639,
          "101": 2.0329270362854004,
          "102": 2.640655755996704,
          "103": 3.2252635955810547,
          "104": -1.0697625875473022,
          "105": 1.6241523027420044,
          "106": 0.26490628719329834,
          "107": 0.9093644618988037,
          "108": 0.9327689409255981,
          "109": -1.1501092910766602,
          "110": 2.862529754638672,
          "111": 0.9791318774223328,
          "112": 1.3469352722167969,
          "113": 0.5833280682563782,
          "114": -0.9398832321166992,
          "115": 1.6271369457244873,
          "116": 0.38569292426109314,
          "117": 0.31798675656318665,
          "118": -1.670587420463562,
          "119": 0.8829678893089294,
          "120": 1.0618889331817627,
          "121": -2.961413621902466,
          "122": -0.37938740849494934,
          "123": 1.0389127731323242,
          "124": 0.1314810812473297,
          "125": -0.39528581500053406,
          "126": -1.074895977973938,
          "127": -2.816464900970459,
          "128": -0.7384946942329407,
          "129": 0.9978066682815552,
          "130": 0.08007750660181046,
          "131": 2.030285358428955,
          "132": -0.3544962704181671,
          "133": 1.0825761556625366,
          "134": -0.457075834274292,
          "135": -1.118562936782837,
          "136": 0.026376081630587578,
          "137": 0.6394312381744385,
          "138": 2.1740405559539795,
          "139": 0.9798541069030762,
          "140": 2.1588242053985596,
          "141": 0.26334506273269653,
          "142": -2.0582523345947266,
          "143": -0.30167773365974426,
          "144": 0.3628320097923279,
          "145": 0.38420847058296204,
          "146": 0.6672919988632202,
          "147": -0.3261779844760895,
          "148": 3.6425859928131104,
          "149": -0.5483025908470154,
          "150": 2.1120657920837402,
          "151": 0.20012681186199188,
          "152": 0.30286911129951477,
          "153": 0.25487571954727173,
          "154": 0.7709541320800781,
          "155": -0.3562888205051422,
          "156": -0.6901666522026062,
          "157": -0.3365747332572937,
          "158": 0.4641239643096924,
          "159": -2.026101589202881,
          "160": -0.0185795109719038,
          "161": -3.2638914585113525,
          "162": -0.7550593614578247,
          "163": -0.05829932168126106,
          "164": 3.6372251510620117,
          "165": 1.473021388053894,
          "166": 0.40516197681427,
          "167": 0.11748720705509186,
          "168": 0.37327948212623596,
          "169": 0.6077368259429932,
          "170": 0.07255580276250839,
          "171": 1.4066977500915527,
          "172": 1.8288757801055908,
          "173": 0.5044243335723877,
          "174": 0.8100376725196838,
          "175": -0.7215369343757629,
          "176": 0.09535782039165497,
          "177": 1.7490758895874023,
          "178": -1.5745755434036255,
          "179": 0.46084392070770264,
          "180": -0.27776387333869934,
          "181": -0.39160773158073425,
          "182": 1.977726697921753,
          "183": -0.32006558775901794,
          "184": -2.597221612930298,
          "185": 0.38689884543418884,
          "186": 0.3050885796546936,
          "187": 0.4210438132286072,
          "188": 1.1339939832687378,
          "189": 4.097937107086182,
          "190": 0.13895101845264435,
          "191": -1.3357244729995728,
          "192": 1.5206561088562012,
          "193": -0.5932653546333313,
          "194": 0.17672109603881836,
          "195": -2.443911075592041,
          "196": 0.48466238379478455,
          "197": 0.591280460357666,
          "198": 0.6725183725357056,
          "199": -0.14756694436073303,
          "200": -1.1374409198760986,
          "201": 0.8060612678527832,
          "202": -0.7776371240615845,
          "203": 0.47476300597190857,
          "204": 2.3443450927734375,
          "205": 1.5610442161560059,
          "206": 0.15752339363098145,
          "207": 1.736522912979126,
          "208": -1.4951369762420654,
          "209": 1.5105292797088623,
          "210": -1.5446807146072388,
          "211": 0.5160170793533325,
          "212": -0.5863760113716125,
          "213": -0.982666552066803,
          "214": 0.880709707736969,
          "215": 1.0742744207382202,
          "216": -1.548127293586731,
          "217": 0.5836185216903687,
          "218": 0.3593120276927948,
          "219": -0.42369967699050903,
          "220": 0.1793839931488037,
          "221": 1.0827747583389282,
          "222": 0.8409742116928101,
          "223": 0.46782782673835754,
          "224": -2.052971363067627,
          "225": -0.49929508566856384,
          "226": 1.7016340494155884,
          "227": 1.4145362377166748,
          "228": -0.8270996809005737,
          "229": -2.9727320671081543,
          "230": 1.611183524131775,
          "231": -0.1933329850435257,
          "232": -0.17611689865589142,
          "233": 0.8000340461730957,
          "234": 0.49543634057044983,
          "235": -0.3140971064567566,
          "236": -1.1674646139144897,
          "237": 0.10480703413486481,
          "238": 0.5334121584892273,
          "239": 0.573076069355011,
          "240": -0.8194422125816345,
          "241": 0.9586563110351562,
          "242": 0.5759830474853516,
          "243": -3.6686649322509766,
          "244": -0.4448496103286743,
          "245": 0.5631077289581299,
          "246": -2.512098789215088,
          "247": 0.5987040996551514,
          "248": 0.49625274538993835,
          "249": -1.6309418678283691,
          "250": 0.5287116765975952,
          "251": -0.8208754062652588,
          "252": -0.025805123150348663,
          "253": -1.1135544776916504,
          "254": 0.26279035210609436,
          "255": -0.08258841931819916,
          "256": -0.07045241445302963,
          "257": 1.152054786682129,
          "258": 1.0033624172210693,
          "259": -1.8067653179168701,
          "260": 1.57679283618927,
          "261": 0.07107025384902954,
          "262": 0.3936624526977539,
          "263": 4.367473602294922,
          "264": 1.262346863746643,
          "265": 0.4790065884590149,
          "266": 1.1862865686416626,
          "267": 3.155207395553589,
          "268": -0.7604978084564209,
          "269": 0.22466294467449188,
          "270": 1.0254008769989014,
          "271": -1.2712448835372925,
          "272": 1.4024592638015747,
          "273": -0.7106094360351562,
          "274": 1.8187814950942993,
          "275": 0.34306979179382324,
          "276": 1.3276392221450806,
          "277": -2.0074493885040283,
          "278": -0.0010858257301151752,
          "279": 1.3306236267089844,
          "280": -0.10323863476514816,
          "281": 0.5425897836685181,
          "282": 0.060076113790273666,
          "283": -0.0737270638346672,
          "284": 0.8861746191978455,
          "285": 0.26111435890197754,
          "286": -0.4154490530490875,
          "287": 0.9926727414131165,
          "288": 0.23115910589694977,
          "289": -0.37044042348861694,
          "290": -0.3765057325363159,
          "291": 0.3304184675216675,
          "292": 0.6769741177558899,
          "293": -0.7020885944366455,
          "294": 0.12329062819480896,
          "295": -0.2613944113254547,
          "296": 1.8257508277893066,
          "297": -0.09459086507558823,
          "298": 0.9944332838058472,
          "299": -0.023901967331767082,
          "300": -0.2706530690193176,
          "301": -0.0376238115131855,
          "302": -0.4115619361400604,
          "303": 0.910111129283905,
          "304": 0.10351761430501938,
          "305": 0.9681795835494995,
          "306": 0.8739891648292542,
          "307": -0.15284083783626556,
          "308": -0.12473807483911514,
          "309": -0.9544870257377625,
          "310": -0.002920859958976507,
          "311": -0.4587707221508026,
          "312": -0.26924198865890503,
          "313": -2.129784345626831,
          "314": -0.9486278891563416,
          "315": -0.1851157397031784,
          "316": -0.9603444337844849,
          "317": 0.10395999997854233,
          "318": 0.6545520424842834,
          "319": 2.918704032897949,
          "320": 0.4520726203918457,
          "321": -0.7113115787506104,
          "322": 1.4453750848770142,
          "323": -0.45536598563194275,
          "324": 1.926743507385254,
          "325": 1.6907868385314941,
          "326": 1.266796350479126,
          "327": 0.7969009280204773,
          "328": -1.8574305772781372,
          "329": 1.8066723346710205,
          "330": -0.8393738865852356,
          "331": 1.3943732976913452,
          "332": 0.7931246757507324,
          "333": -1.648075819015503,
          "334": 1.973548412322998,
          "335": -1.2970246076583862,
          "336": 0.849140465259552,
          "337": 0.8076087236404419,
          "338": 0.2688553035259247,
          "339": -0.6409556269645691,
          "340": 2.5500943660736084,
          "341": -0.423208624124527,
          "342": -0.537086546421051,
          "343": -1.5513383150100708,
          "344": 0.9315550327301025,
          "345": -3.3065872192382812,
          "346": 0.7196474671363831,
          "347": -2.2781612873077393,
          "348": 2.542973279953003,
          "349": -1.3107578754425049,
          "350": 0.5961704254150391,
          "351": -0.6115468740463257,
          "352": 0.3820832669734955,
          "353": 2.2747232913970947,
          "354": 0.0031946729868650436,
          "355": 1.5307413339614868,
          "356": 1.8764468431472778,
          "357": 2.5384230613708496,
          "358": -0.8178924322128296,
          "359": -0.021903477609157562,
          "360": 0.5911138653755188,
          "361": -0.8323842287063599,
          "362": 2.3421273231506348,
          "363": 1.3828264474868774,
          "364": -2.1082115173339844,
          "365": 1.5172171592712402,
          "366": -0.5364179611206055,
          "367": 2.2032418251037598,
          "368": 0.3712470829486847,
          "369": 2.186398983001709,
          "370": -0.042995885014534,
          "371": 0.08109541982412338,
          "372": -2.7934765815734863,
          "373": -2.038647413253784,
          "374": -1.8483370542526245,
          "375": 0.740274965763092,
          "376": -1.9462106227874756,
          "377": -2.1126961708068848,
          "378": -2.5107882022857666,
          "379": 3.260329008102417,
          "380": 1.89308762550354,
          "381": 2.0233795642852783,
          "382": -1.7308651208877563,
          "383": 0.5603930354118347,
          "384": 0.8842803239822388,
          "385": -0.4535352289676666,
          "386": -0.15971212089061737,
          "387": 1.855808138847351,
          "388": 1.2482004165649414,
          "389": 1.459589958190918,
          "390": 0.20766614377498627,
          "391": 2.386920928955078,
          "392": -0.9726793766021729,
          "393": -0.6141252517700195,
          "394": 0.19661642611026764,
          "395": 0.9413962960243225,
          "396": 0.4654366672039032,
          "397": -2.112607002258301,
          "398": 2.1542279720306396,
          "399": 2.08945369720459,
          "400": -0.3618375062942505,
          "401": 0.6174324750900269,
          "402": 0.7402162551879883,
          "403": 1.3245964050292969,
          "404": -0.008753793314099312,
          "405": 0.3588080406188965,
          "406": 1.0075172185897827,
          "407": 0.3226170539855957,
          "408": -0.334701806306839,
          "409": 1.4525952339172363,
          "410": -1.7102185487747192,
          "411": 1.1228655576705933,
          "412": -1.8169163465499878,
          "413": -0.018746141344308853,
          "414": 0.061046890914440155,
          "415": 0.7733550667762756,
          "416": 0.22616396844387054,
          "417": 0.44702669978141785,
          "418": 4.569488525390625,
          "419": -1.605529546737671,
          "420": -1.0168311595916748,
          "421": 0.47133195400238037,
          "422": -0.11052865535020828,
          "423": 0.5231959223747253,
          "424": 0.28095880150794983,
          "425": 0.25334876775741577,
          "426": 0.5141584277153015,
          "427": 1.3836909532546997,
          "428": -0.22604647278785706,
          "429": 2.559415340423584,
          "430": -2.8138344287872314,
          "431": -0.16470465064048767,
          "432": 1.0730551481246948,
          "433": -0.1513952612876892,
          "434": 2.301953077316284,
          "435": -1.1590031385421753,
          "436": 2.7988057136535645,
          "437": -0.3166106045246124,
          "438": -0.2757391333580017,
          "439": 0.43071189522743225,
          "440": 0.677345335483551,
          "441": 1.195873737335205,
          "442": 0.008045705035328865,
          "443": 1.926188588142395,
          "444": -0.9133195877075195,
          "445": -1.7263884544372559,
          "446": 0.4776667356491089,
          "447": -0.7110627293586731,
          "448": 0.12885211408138275,
          "449": -0.9048752188682556,
          "450": 0.4047914743423462,
          "451": 2.767883777618408,
          "452": 1.4221291542053223,
          "453": 1.0660340785980225,
          "454": 0.9539071917533875,
          "455": -0.5689530372619629,
          "456": -1.3751373291015625,
          "457": -0.2506197392940521,
          "458": 1.28436279296875,
          "459": -0.6674402356147766,
          "460": 0.36779117584228516,
          "461": -0.5085798501968384,
          "462": -0.8767308592796326,
          "463": -0.872096061706543,
          "464": -1.4965741634368896,
          "465": -0.43636247515678406,
          "466": 0.944106936454773,
          "467": 0.010112379677593708,
          "468": 1.9791442155838013,
          "469": 1.1841957569122314,
          "470": -0.8730743527412415,
          "471": 1.4291293621063232,
          "472": -1.0466011762619019,
          "473": 0.20534412562847137,
          "474": -0.84626704454422,
          "475": 0.5209980607032776,
          "476": -0.40007123351097107,
          "477": -0.789405345916748,
          "478": -1.3795192241668701,
          "479": -0.673125147819519,
          "480": 0.35845720767974854,
          "481": -2.192626714706421,
          "482": -0.34101414680480957,
          "483": 0.49301013350486755,
          "484": -0.8368282914161682,
          "485": 0.6873916387557983,
          "486": -0.827993631362915,
          "487": -0.04903677478432655,
          "488": 0.6888806223869324,
          "489": -1.1846352815628052,
          "490": 0.9619027376174927,
          "491": -0.6340029239654541,
          "492": -1.1629414558410645,
          "493": -0.44930338859558105,
          "494": 1.3349108695983887,
          "495": -0.47732579708099365,
          "496": 3.6329169273376465,
          "497": -1.9861395359039307,
          "498": 1.1347920894622803,
          "499": 1.8941348791122437,
          "500": 0.049425799399614334,
          "501": -1.7041727304458618,
          "502": 0.20400477945804596,
          "503": 1.8007985353469849,
          "504": 0.8905932307243347,
          "505": 1.0817378759384155,
          "506": 0.5586395859718323,
          "507": -1.790830373764038,
          "508": 0.6107391715049744,
          "509": 0.23154766857624054,
          "510": -1.2679671049118042,
          "511": 2.4619364738464355,
          "512": 1.2415271997451782,
          "513": 1.4382463693618774,
          "514": 0.6418401002883911,
          "515": 2.1616954803466797,
          "516": 2.3616788387298584,
          "517": 0.994398832321167,
          "518": -1.287917971611023,
          "519": -1.0374828577041626,
          "520": -0.10257957875728607,
          "521": 0.7225706577301025,
          "522": 0.9187556505203247,
          "523": 0.6605027914047241,
          "524": 1.2518646717071533,
          "525": -0.5858151316642761,
          "526": -2.6087710857391357,
          "527": 0.21789619326591492,
          "528": 1.1441761255264282,
          "529": -0.731615424156189,
          "530": -1.1906895637512207,
          "531": -1.8176095485687256,
          "532": -0.5490514039993286,
          "533": 0.48239651322364807,
          "534": -0.17463500797748566,
          "535": -0.23351924121379852,
          "536": -2.177354335784912,
          "537": -0.6770939230918884,
          "538": -2.6976001262664795,
          "539": 2.519245147705078,
          "540": -1.0834320783615112,
          "541": 3.861990451812744,
          "542": -2.4143872261047363,
          "543": 0.9481632113456726,
          "544": 0.5337457060813904,
          "545": -0.30755478143692017,
          "546": -2.8941495418548584,
          "547": 0.7321405410766602,
          "548": 0.04684208706021309,
          "549": 0.3628578186035156,
          "550": 1.227099061012268,
          "551": 1.7309763431549072,
          "552": -0.04239477589726448,
          "553": 0.025275373831391335,
          "554": -0.5395109057426453,
          "555": 1.078765869140625,
          "556": 0.4674806594848633,
          "557": 0.04975994676351547,
          "558": 0.8502861857414246,
          "559": -0.026993097737431526,
          "560": 0.7559689283370972,
          "561": 1.4332704544067383,
          "562": 0.3620232343673706,
          "563": 2.8698549270629883,
          "564": 0.07205843180418015,
          "565": 0.1109573021531105,
          "566": -2.712416410446167,
          "567": -1.0189144611358643,
          "568": -1.109665870666504,
          "569": 2.455195426940918,
          "570": 1.5890190601348877,
          "571": 2.5915687084198,
          "572": -1.2602391242980957,
          "573": 0.8484592437744141,
          "574": 0.34111887216567993,
          "575": -1.9197947978973389,
          "576": 2.5151736736297607,
          "577": 1.0877896547317505,
          "578": -0.6389452815055847,
          "579": 1.4015073776245117,
          "580": -1.0087312459945679,
          "581": 0.9208498001098633,
          "582": -0.5639904737472534,
          "583": -0.7528605461120605,
          "584": 0.47600141167640686,
          "585": -1.0312514305114746,
          "586": 1.8168258666992188,
          "587": -0.19940000772476196,
          "588": 0.37603116035461426,
          "589": -0.9037429094314575,
          "590": -1.6383305788040161,
          "591": -0.5301623344421387,
          "592": -0.8969529271125793,
          "593": -0.8532357215881348,
          "594": -1.0707639455795288,
          "595": -0.7172898650169373,
          "596": 1.0238100290298462,
          "597": 1.4403541088104248,
          "598": 0.8697388172149658,
          "599": 0.2173399180173874,
          "600": -0.9405403733253479,
          "601": 0.2683519124984741,
          "602": -1.9591511487960815,
          "603": 0.13616600632667542,
          "604": 0.8723951578140259,
          "605": -0.4325246810913086,
          "606": 1.7956479787826538,
          "607": -0.4953245222568512,
          "608": 1.4079874753952026,
          "609": -1.705684781074524,
          "610": -1.7187342643737793,
          "611": 1.4920012950897217,
          "612": -0.10330447554588318,
          "613": 0.714398205280304,
          "614": -1.5226185321807861,
          "615": 1.1942685842514038,
          "616": 0.4279812276363373,
          "617": -2.580681800842285,
          "618": 0.5386707782745361,
          "619": 1.127008080482483
        }
      },
      "inputHidden": {
        "rows": 20,
        "columns": 20,
        "weights": {
          "0": 0.7231046557426453,
          "1": -3.2778561115264893,
          "2": -0.7351313829421997,
          "3": -1.3799105882644653,
          "4": -0.7929002046585083,
          "5": 0.8178084492683411,
          "6": 0.02894352190196514,
          "7": -2.7236828804016113,
          "8": 2.582836151123047,
          "9": 1.3052834272384644,
          "10": 1.870558261871338,
          "11": -2.273510217666626,
          "12": 0.15664678812026978,
          "13": 0.03805287182331085,
          "14": -1.1876180171966553,
          "15": -0.5348110795021057,
          "16": 1.3395605087280273,
          "17": -1.3192458152770996,
          "18": 0.497882217168808,
          "19": 0.3586013615131378,
          "20": -2.0311715602874756,
          "21": 2.9311089515686035,
          "22": 0.533739447593689,
          "23": 0.8307870030403137,
          "24": -2.7788820266723633,
          "25": 1.6010332107543945,
          "26": 1.928369402885437,
          "27": -3.6866369247436523,
          "28": -1.4313093423843384,
          "29": 0.633613646030426,
          "30": -0.20784439146518707,
          "31": 0.10016335546970367,
          "32": 0.6578336358070374,
          "33": -1.0374811887741089,
          "34": 1.1356271505355835,
          "35": -0.9786016345024109,
          "36": -2.0740981101989746,
          "37": -2.732121706008911,
          "38": -0.9217894077301025,
          "39": 4.259934902191162,
          "40": 0.37996557354927063,
          "41": 0.3164970278739929,
          "42": 1.5208770036697388,
          "43": 1.2792445421218872,
          "44": 1.1420974731445312,
          "45": 1.844098687171936,
          "46": -0.17972791194915771,
          "47": -0.5625842809677124,
          "48": 0.5817245841026306,
          "49": -1.2984991073608398,
          "50": -2.9340226650238037,
          "51": 0.6855860352516174,
          "52": 3.033336877822876,
          "53": 2.6297619342803955,
          "54": 0.006263042334467173,
          "55": 2.047015905380249,
          "56": -0.09991337358951569,
          "57": 0.8729355335235596,
          "58": -1.145244836807251,
          "59": 1.7793022394180298,
          "60": 0.7353328466415405,
          "61": 1.097283959388733,
          "62": 0.5433589220046997,
          "63": 0.2917823791503906,
          "64": -2.388418197631836,
          "65": -1.369407296180725,
          "66": 1.0213838815689087,
          "67": 0.14223366975784302,
          "68": 1.604280710220337,
          "69": 0.3956100046634674,
          "70": 0.6521121859550476,
          "71": -4.413437843322754,
          "72": -2.2820217609405518,
          "73": -0.33056676387786865,
          "74": -1.2306160926818848,
          "75": -2.9196906089782715,
          "76": 1.71151602268219,
          "77": -1.3210428953170776,
          "78": -2.6600685119628906,
          "79": -0.16889478266239166,
          "80": -0.31409868597984314,
          "81": 0.13212740421295166,
          "82": -0.8889135718345642,
          "83": -2.0213711261749268,
          "84": -1.6608905792236328,
          "85": -1.1676009893417358,
          "86": -0.937236487865448,
          "87": 0.7415333986282349,
          "88": 0.7839608788490295,
          "89": 1.483079195022583,
          "90": -0.3590348958969116,
          "91": -0.12272179126739502,
          "92": -1.525692105293274,
          "93": 0.24421367049217224,
          "94": -1.4004145860671997,
          "95": 0.9617168307304382,
          "96": 1.9729911088943481,
          "97": -2.449174165725708,
          "98": -0.14388355612754822,
          "99": 2.356903553009033,
          "100": 0.8284335732460022,
          "101": -1.0504297018051147,
          "102": -0.11743345856666565,
          "103": -2.967423677444458,
          "104": 0.5284156799316406,
          "105": -0.3110044002532959,
          "106": 0.715101420879364,
          "107": 0.5484181642532349,
          "108": 0.8424124717712402,
          "109": 0.42645105719566345,
          "110": -0.9218655228614807,
          "111": -1.5925003290176392,
          "112": -0.17512556910514832,
          "113": 2.825779676437378,
          "114": 1.411926507949829,
          "115": 2.0680532455444336,
          "116": -1.5452327728271484,
          "117": 1.2606070041656494,
          "118": -1.1481965780258179,
          "119": -0.9187219738960266,
          "120": 2.8410375118255615,
          "121": 0.5656454563140869,
          "122": 4.007885932922363,
          "123": 1.6560757160186768,
          "124": 0.880210280418396,
          "125": -2.8755862712860107,
          "126": -0.6160885095596313,
          "127": -0.7063705921173096,
          "128": 3.200167655944824,
          "129": 2.0295157432556152,
          "130": 3.6828548908233643,
          "131": -0.8400633931159973,
          "132": 0.26690012216567993,
          "133": -2.5442824363708496,
          "134": -3.5617687702178955,
          "135": 1.1406909227371216,
          "136": 1.1087281703948975,
          "137": 0.9247247576713562,
          "138": -0.19316266477108002,
          "139": 3.936472177505493,
          "140": -0.29952314496040344,
          "141": -3.3299856185913086,
          "142": 1.7113889455795288,
          "143": 0.8950396180152893,
          "144": -1.8584372997283936,
          "145": -2.9645774364471436,
          "146": 0.11137352883815765,
          "147": -1.2042222023010254,
          "148": 0.7586833834648132,
          "149": 0.49540185928344727,
          "150": 6.24308967590332,
          "151": -3.9148004055023193,
          "152": -5.900235176086426,
          "153": 0.28056421875953674,
          "154": 0.8820626139640808,
          "155": -0.46610206365585327,
          "156": -4.978641986846924,
          "157": 1.5986969470977783,
          "158": 3.2249433994293213,
          "159": 0.8967756628990173,
          "160": -0.41705378890037537,
          "161": -1.26127290725708,
          "162": -0.26108333468437195,
          "163": 0.16008852422237396,
          "164": 1.1730238199234009,
          "165": 1.5765725374221802,
          "166": 0.6380833387374878,
          "167": -0.24723196029663086,
          "168": 0.7675865292549133,
          "169": -1.4601352214813232,
          "170": -1.2503156661987305,
          "171": 1.4689120054244995,
          "172": 0.7419058680534363,
          "173": 0.3381538689136505,
          "174": 2.9988622665405273,
          "175": -2.110236644744873,
          "176": -2.276658535003662,
          "177": -0.43693187832832336,
          "178": -1.740132451057434,
          "179": -1.0127367973327637,
          "180": -0.9818639755249023,
          "181": -1.6041107177734375,
          "182": -4.30167293548584,
          "183": -5.794332027435303,
          "184": -5.795363903045654,
          "185": 5.059532165527344,
          "186": 0.47711536288261414,
          "187": -0.4286610782146454,
          "188": 1.741646647453308,
          "189": 3.7262520790100098,
          "190": 2.9114577770233154,
          "191": 2.940680742263794,
          "192": 2.0612306594848633,
          "193": -3.9556386470794678,
          "194": -4.049339771270752,
          "195": 0.7062779068946838,
          "196": 4.580949306488037,
          "197": -4.852752208709717,
          "198": -2.3030993938446045,
          "199": -1.0887982845306396,
          "200": -2.3252692222595215,
          "201": 0.03897552937269211,
          "202": -0.6463754773139954,
          "203": -0.8770686984062195,
          "204": -0.21434004604816437,
          "205": 1.8392691612243652,
          "206": 1.0494403839111328,
          "207": -0.3183358311653137,
          "208": 0.32356876134872437,
          "209": -1.0960537195205688,
          "210": 1.062137484550476,
          "211": 0.7191166877746582,
          "212": 3.8493475914001465,
          "213": -1.0529965162277222,
          "214": 0.12230373173952103,
          "215": -0.9726356267929077,
          "216": -0.6161743998527527,
          "217": -2.5481133460998535,
          "218": -1.6251051425933838,
          "219": -0.053642142564058304,
          "220": 0.15470854938030243,
          "221": 0.3028368651866913,
          "222": -0.7187170386314392,
          "223": 1.8082810640335083,
          "224": -0.6137913465499878,
          "225": -0.16984912753105164,
          "226": 0.2232900857925415,
          "227": 0.6406819224357605,
          "228": -0.26793748140335083,
          "229": -1.2217937707901,
          "230": -0.5079453587532043,
          "231": -0.033533718436956406,
          "232": -0.5342196226119995,
          "233": 0.6898422837257385,
          "234": 2.0043222904205322,
          "235": 2.355095386505127,
          "236": -1.722650408744812,
          "237": 0.5709851384162903,
          "238": 1.2263967990875244,
          "239": 0.31403154134750366,
          "240": -0.9925969243049622,
          "241": 1.5543665885925293,
          "242": 0.7739259600639343,
          "243": 0.9679458141326904,
          "244": -1.1474660634994507,
          "245": -1.7373143434524536,
          "246": -0.7252145409584045,
          "247": -1.5031682252883911,
          "248": -2.9346485137939453,
          "249": -0.5265689492225647,
          "250": 1.9049583673477173,
          "251": -0.7989768981933594,
          "252": -1.9164605140686035,
          "253": -1.5471874475479126,
          "254": 1.3529576063156128,
          "255": -0.9283652901649475,
          "256": 0.17627213895320892,
          "257": -1.476874589920044,
          "258": 0.39060232043266296,
          "259": -0.13347786664962769,
          "260": -0.2135697305202484,
          "261": -0.4278349280357361,
          "262": -0.2561008036136627,
          "263": -0.9829720854759216,
          "264": 0.9231685996055603,
          "265": -1.5543911457061768,
          "266": 0.8159880638122559,
          "267": -0.4787794351577759,
          "268": -0.4116795063018799,
          "269": -0.7096614241600037,
          "270": 1.5650122165679932,
          "271": -2.525996446609497,
          "272": 0.4451426863670349,
          "273": -2.8935599327087402,
          "274": -1.7787230014801025,
          "275": -0.2387418895959854,
          "276": 2.3953232765197754,
          "277": -0.08970016241073608,
          "278": -1.6411190032958984,
          "279": 2.2512288093566895,
          "280": 4.458095550537109,
          "281": -0.9606407880783081,
          "282": 1.9459848403930664,
          "283": 2.7934393882751465,
          "284": 1.4845844507217407,
          "285": -1.7675975561141968,
          "286": -1.6405291557312012,
          "287": -0.7385004758834839,
          "288": 0.04341762885451317,
          "289": 0.6990162134170532,
          "290": 0.005823104176670313,
          "291": -1.6051372289657593,
          "292": 3.802415609359741,
          "293": -3.045614719390869,
          "294": 4.203433036804199,
          "295": -0.3741036057472229,
          "296": 0.9702392816543579,
          "297": -1.168472170829773,
          "298": -3.5446054935455322,
          "299": 2.7831552028656006,
          "300": 2.6259500980377197,
          "301": -1.7785040140151978,
          "302": 2.900958776473999,
          "303": -0.9608513712882996,
          "304": -2.5422275066375732,
          "305": 3.6257483959198,
          "306": -0.7867785692214966,
          "307": -3.5801713466644287,
          "308": -0.08980359137058258,
          "309": 3.7630536556243896,
          "310": 2.268021583557129,
          "311": 0.11964300274848938,
          "312": -1.608936071395874,
          "313": 2.1970529556274414,
          "314": -0.34039509296417236,
          "315": 1.6910078525543213,
          "316": 2.3118526935577393,
          "317": 2.1810734272003174,
          "318": 0.4589584469795227,
          "319": 0.04459252953529358,
          "320": -0.17629006505012512,
          "321": 0.36259645223617554,
          "322": -1.5127050876617432,
          "323": 0.8358554840087891,
          "324": -2.526087522506714,
          "325": -0.14988631010055542,
          "326": 2.112896680831909,
          "327": 0.8005207777023315,
          "328": 2.6475977897644043,
          "329": -0.5001832842826843,
          "330": 1.7510873079299927,
          "331": -0.4497659206390381,
          "332": 0.005756152328103781,
          "333": -3.191986083984375,
          "334": -1.5373493432998657,
          "335": 0.9194348454475403,
          "336": 1.390865683555603,
          "337": -0.7106837630271912,
          "338": -1.4063552618026733,
          "339": -0.08217733353376389,
          "340": 4.0507731437683105,
          "341": 0.5360925197601318,
          "342": 2.0352485179901123,
          "343": 1.2053149938583374,
          "344": -1.3387088775634766,
          "345": 1.0330214500427246,
          "346": -3.7848801612854004,
          "347": -2.5266454219818115,
          "348": 2.9681098461151123,
          "349": -0.6983587145805359,
          "350": -0.07978982478380203,
          "351": -0.47241178154945374,
          "352": -1.251939296722412,
          "353": 1.8077938556671143,
          "354": -1.9982314109802246,
          "355": -1.62489652633667,
          "356": 3.8316471576690674,
          "357": 1.0719988346099854,
          "358": 0.11727733165025711,
          "359": 2.0499794483184814,
          "360": 0.6628283858299255,
          "361": -1.3348897695541382,
          "362": 0.8926206231117249,
          "363": 0.1758638322353363,
          "364": 1.2097872495651245,
          "365": 1.0151479244232178,
          "366": -1.8120710849761963,
          "367": -2.1360108852386475,
          "368": 0.30097687244415283,
          "369": -0.3102320730686188,
          "370": 2.776319980621338,
          "371": -0.7678895592689514,
          "372": -2.2499639987945557,
          "373": 0.9908028841018677,
          "374": 0.5398192405700684,
          "375": 0.12659531831741333,
          "376": 2.668612003326416,
          "377": 1.0231778621673584,
          "378": -0.1873551458120346,
          "379": -1.3839826583862305,
          "380": -2.578066825866699,
          "381": -0.8692821264266968,
          "382": -0.2523128390312195,
          "383": 0.3493041694164276,
          "384": 4.161233425140381,
          "385": 2.654663324356079,
          "386": 5.8086934089660645,
          "387": -2.8419620990753174,
          "388": -1.172963261604309,
          "389": -3.958664894104004,
          "390": -5.312069416046143,
          "391": 1.2213889360427856,
          "392": -0.7317081689834595,
          "393": 0.7823452353477478,
          "394": 1.1340693235397339,
          "395": 0.5313451290130615,
          "396": 0.408110111951828,
          "397": 2.8514909744262695,
          "398": -1.1008374691009521,
          "399": -1.0190881490707397
        }
      },
      "inputBias": {
        "rows": 20,
        "columns": 1,
        "weights": {
          "0": -0.43838638067245483,
          "1": -2.3399600982666016,
          "2": -0.8366971015930176,
          "3": -1.4700196981430054,
          "4": -0.03929831087589264,
          "5": -1.8190200328826904,
          "6": -2.0608839988708496,
          "7": -0.9752500653266907,
          "8": 3.191056966781616,
          "9": -0.2695985734462738,
          "10": -1.3429834842681885,
          "11": 0.04352400079369545,
          "12": -0.4151920974254608,
          "13": -1.852921485900879,
          "14": -0.8911265730857849,
          "15": -1.2653294801712036,
          "16": 0.1390029788017273,
          "17": -1.2115881443023682,
          "18": -0.020216980949044228,
          "19": 0.2222217470407486
        }
      },
      "forgetMatrix": {
        "rows": 20,
        "columns": 31,
        "weights": {
          "0": 2.478832244873047,
          "1": -1.3234951496124268,
          "2": 0.8299499750137329,
          "3": 1.7025161981582642,
          "4": 1.103147029876709,
          "5": -3.5263009071350098,
          "6": -0.21707873046398163,
          "7": 1.3514125347137451,
          "8": -0.8744937181472778,
          "9": 0.7107989192008972,
          "10": -0.22351552546024323,
          "11": -2.795564889907837,
          "12": -0.8106713891029358,
          "13": 0.04779007285833359,
          "14": 0.4799826741218567,
          "15": 0.03730938583612442,
          "16": 1.6660295724868774,
          "17": 1.6030243635177612,
          "18": 1.1609655618667603,
          "19": 0.08975265175104141,
          "20": 4.319151401519775,
          "21": 0.9810680747032166,
          "22": -0.215218186378479,
          "23": 2.500136375427246,
          "24": -0.019652511924505234,
          "25": -0.5682862997055054,
          "26": 0.016742531210184097,
          "27": 0.014453940093517303,
          "28": 0.43489518761634827,
          "29": 0.1845899075269699,
          "30": -2.444570541381836,
          "31": -0.40047165751457214,
          "32": 1.211321473121643,
          "33": -0.9438773393630981,
          "34": -1.018965244293213,
          "35": 0.3326026201248169,
          "36": -1.334773302078247,
          "37": -0.1254463791847229,
          "38": -1.8737884759902954,
          "39": -2.2714176177978516,
          "40": -0.8105916976928711,
          "41": 1.9842077493667603,
          "42": -1.1282786130905151,
          "43": 0.05019862949848175,
          "44": -1.2563610076904297,
          "45": 2.404301166534424,
          "46": 1.4553050994873047,
          "47": 1.3036985397338867,
          "48": -0.5528879761695862,
          "49": 1.7810590267181396,
          "50": -0.21558035910129547,
          "51": 1.246516466140747,
          "52": 0.10544226318597794,
          "53": 1.2686927318572998,
          "54": 1.194954752922058,
          "55": 0.5140390396118164,
          "56": 0.08006566762924194,
          "57": 1.7063695192337036,
          "58": -1.5121395587921143,
          "59": -1.0417020320892334,
          "60": 0.28075775504112244,
          "61": -0.602101743221283,
          "62": -0.28900453448295593,
          "63": -0.8562223315238953,
          "64": -1.733729600906372,
          "65": -0.4874137043952942,
          "66": -0.8700315952301025,
          "67": 0.7987043857574463,
          "68": -0.41393160820007324,
          "69": 0.38383013010025024,
          "70": -1.5571712255477905,
          "71": 2.4673852920532227,
          "72": -0.22455276548862457,
          "73": 1.0601767301559448,
          "74": -0.735782265663147,
          "75": 0.3462999761104584,
          "76": 1.1320605278015137,
          "77": 0.7743365168571472,
          "78": 2.1549599170684814,
          "79": 0.10443733632564545,
          "80": -1.24077570438385,
          "81": 0.20141690969467163,
          "82": -0.24425038695335388,
          "83": 0.36790749430656433,
          "84": 3.1265292167663574,
          "85": -2.4233551025390625,
          "86": 0.18532265722751617,
          "87": -1.1796194314956665,
          "88": 0.24178823828697205,
          "89": 0.11172573268413544,
          "90": 0.4038611650466919,
          "91": -0.5381158590316772,
          "92": 1.094360113143921,
          "93": 1.4871160984039307,
          "94": 2.597288131713867,
          "95": 0.6380616426467896,
          "96": 1.7277003526687622,
          "97": 2.0018341541290283,
          "98": -0.09528353810310364,
          "99": 0.2812877595424652,
          "100": -2.1768031120300293,
          "101": -1.7277379035949707,
          "102": -1.9885388612747192,
          "103": 0.09935775399208069,
          "104": -0.10922540724277496,
          "105": -0.27770286798477173,
          "106": -0.17502211034297943,
          "107": 0.2589060962200165,
          "108": -1.360840082168579,
          "109": -0.2713688611984253,
          "110": -1.091811180114746,
          "111": 1.9387048482894897,
          "112": -1.190591812133789,
          "113": 0.7540233135223389,
          "114": 0.23558101058006287,
          "115": -0.9651827216148376,
          "116": -1.1012582778930664,
          "117": -0.9464448690414429,
          "118": 1.48554527759552,
          "119": -0.2878892719745636,
          "120": -2.3890724182128906,
          "121": 1.9243242740631104,
          "122": 1.1060882806777954,
          "123": -0.6356303095817566,
          "124": 0.10134240239858627,
          "125": 2.0926051139831543,
          "126": 1.2856296300888062,
          "127": 1.5184916257858276,
          "128": 0.48765623569488525,
          "129": -1.030519723892212,
          "130": 1.9122064113616943,
          "131": -1.945013403892517,
          "132": -0.24041923880577087,
          "133": -2.2876625061035156,
          "134": -0.38186144828796387,
          "135": 0.35929033160209656,
          "136": 1.3145580291748047,
          "137": 0.502498984336853,
          "138": -0.9979451894760132,
          "139": 0.5038689970970154,
          "140": -0.7599027752876282,
          "141": 0.09506943076848984,
          "142": 2.0150837898254395,
          "143": 1.1487054824829102,
          "144": 1.6971300840377808,
          "145": 0.960854709148407,
          "146": -0.5282213091850281,
          "147": 0.7915255427360535,
          "148": -0.4184834063053131,
          "149": 1.5748512744903564,
          "150": -0.23863378167152405,
          "151": 0.11471476405858994,
          "152": 1.5174086093902588,
          "153": 0.24996496737003326,
          "154": -1.4287468194961548,
          "155": 0.9027908444404602,
          "156": -2.062781572341919,
          "157": -0.6999823451042175,
          "158": -1.4979922771453857,
          "159": -0.5508331656455994,
          "160": 0.1823662668466568,
          "161": -1.0710070133209229,
          "162": -0.060609132051467896,
          "163": -0.7672619819641113,
          "164": 2.1059186458587646,
          "165": 0.4437341094017029,
          "166": -0.5106498599052429,
          "167": 0.0008259860333055258,
          "168": -0.706929087638855,
          "169": 0.9448003172874451,
          "170": -1.1792523860931396,
          "171": 2.13820219039917,
          "172": 0.5127526521682739,
          "173": -0.933233380317688,
          "174": -1.5696663856506348,
          "175": 1.0130479335784912,
          "176": -0.1676022857427597,
          "177": 1.6358286142349243,
          "178": -0.951677143573761,
          "179": 0.4515640139579773,
          "180": -1.6438037157058716,
          "181": -3.610682725906372,
          "182": 1.6284821033477783,
          "183": -0.2528100609779358,
          "184": -2.2645347118377686,
          "185": 0.7448488473892212,
          "186": -0.5676440596580505,
          "187": 1.0647186040878296,
          "188": -0.7727813124656677,
          "189": 0.3863038420677185,
          "190": 0.23823656141757965,
          "191": 0.2914193272590637,
          "192": -0.002468497958034277,
          "193": -1.8939292430877686,
          "194": -1.1435431241989136,
          "195": -0.5337556600570679,
          "196": 1.1024736166000366,
          "197": 0.5471187829971313,
          "198": -2.047349452972412,
          "199": 0.6654428243637085,
          "200": -0.07721907645463943,
          "201": 2.314383029937744,
          "202": -1.378129243850708,
          "203": -1.2166868448257446,
          "204": -0.8423342108726501,
          "205": 0.06102529168128967,
          "206": -1.300020456314087,
          "207": 1.1899319887161255,
          "208": 1.3478761911392212,
          "209": -0.6886742115020752,
          "210": -0.3063056766986847,
          "211": -1.1055961847305298,
          "212": 0.011465532705187798,
          "213": -1.3181955814361572,
          "214": 1.3650482892990112,
          "215": -0.0914841890335083,
          "216": 2.387887954711914,
          "217": 2.16900372505188,
          "218": -0.07137839496135712,
          "219": -0.7360756993293762,
          "220": -1.26619553565979,
          "221": 1.37259042263031,
          "222": -1.748915433883667,
          "223": -0.4153006970882416,
          "224": -0.0874176099896431,
          "225": 2.844158411026001,
          "226": 0.47227200865745544,
          "227": 3.323885440826416,
          "228": -2.454103946685791,
          "229": 2.2833032608032227,
          "230": 0.22329263389110565,
          "231": 0.10933861136436462,
          "232": 1.3336546421051025,
          "233": -0.5486789345741272,
          "234": 1.6226669549942017,
          "235": -0.5363203883171082,
          "236": 0.1600329428911209,
          "237": 1.1054672002792358,
          "238": -0.09182798862457275,
          "239": 1.8769652843475342,
          "240": -1.9121767282485962,
          "241": -0.05155692994594574,
          "242": -0.28406989574432373,
          "243": -0.6899642944335938,
          "244": 1.1835618019104004,
          "245": -0.7885177135467529,
          "246": -1.3473641872406006,
          "247": -1.424809217453003,
          "248": -1.3593400716781616,
          "249": 0.39748311042785645,
          "250": -0.6427484750747681,
          "251": -1.9599360227584839,
          "252": 0.8578072786331177,
          "253": 1.0634311437606812,
          "254": 0.4017481803894043,
          "255": -0.7262227535247803,
          "256": 0.2071927785873413,
          "257": -1.4452757835388184,
          "258": 0.3797384202480316,
          "259": 1.243736743927002,
          "260": -0.17403541505336761,
          "261": -0.8088095784187317,
          "262": 1.2904528379440308,
          "263": 0.17755387723445892,
          "264": -1.8607696294784546,
          "265": 0.2580367922782898,
          "266": -1.0170150995254517,
          "267": 0.6805571913719177,
          "268": -1.9060496091842651,
          "269": -1.10442316532135,
          "270": -1.0777465105056763,
          "271": 2.1867783069610596,
          "272": -0.1322716325521469,
          "273": -0.6758461594581604,
          "274": 0.30453863739967346,
          "275": -0.7139613628387451,
          "276": 0.3405930995941162,
          "277": 0.09342370182275772,
          "278": 1.756891131401062,
          "279": 1.2689262628555298,
          "280": 1.8312383890151978,
          "281": 1.3771147727966309,
          "282": 2.570422410964966,
          "283": 1.211187481880188,
          "284": -2.0232796669006348,
          "285": 1.627855658531189,
          "286": -0.4034833610057831,
          "287": 0.24308058619499207,
          "288": -1.0890028476715088,
          "289": -0.22093051671981812,
          "290": -0.39076367020606995,
          "291": 0.32067036628723145,
          "292": 0.9884005784988403,
          "293": -1.7940584421157837,
          "294": 0.7702046036720276,
          "295": -0.20890292525291443,
          "296": -0.45485615730285645,
          "297": 1.2245354652404785,
          "298": -1.3246952295303345,
          "299": 2.8454601764678955,
          "300": 0.6876446604728699,
          "301": -1.64972722530365,
          "302": -0.17114309966564178,
          "303": -1.8360893726348877,
          "304": 1.795623540878296,
          "305": -1.4803417921066284,
          "306": -2.455294609069824,
          "307": 0.7481875419616699,
          "308": -0.7662634253501892,
          "309": -1.5429733991622925,
          "310": -0.9308832883834839,
          "311": 0.8940361142158508,
          "312": 0.19525355100631714,
          "313": 0.7442038059234619,
          "314": -0.26648202538490295,
          "315": 0.5655532479286194,
          "316": 1.5226095914840698,
          "317": -0.6679007411003113,
          "318": -1.625741720199585,
          "319": -1.720332384109497,
          "320": 0.04509388655424118,
          "321": 3.0135252475738525,
          "322": -0.6863235235214233,
          "323": 0.271472305059433,
          "324": -1.3763481378555298,
          "325": 0.4771266281604767,
          "326": -0.7745426297187805,
          "327": -1.8594075441360474,
          "328": 1.092864751815796,
          "329": -0.6804791688919067,
          "330": -0.12660014629364014,
          "331": 0.653005838394165,
          "332": -1.1057323217391968,
          "333": 1.3953138589859009,
          "334": -1.8231905698776245,
          "335": 1.3244116306304932,
          "336": 0.7137178778648376,
          "337": -2.053830862045288,
          "338": 1.5688796043395996,
          "339": 0.49314966797828674,
          "340": -0.34032249450683594,
          "341": -1.230866551399231,
          "342": -0.13406598567962646,
          "343": -0.7350252866744995,
          "344": 1.1105605363845825,
          "345": -0.7817281484603882,
          "346": 0.6453572511672974,
          "347": -0.7378140687942505,
          "348": 0.30166861414909363,
          "349": -0.9346529245376587,
          "350": 2.123880624771118,
          "351": 0.3387557864189148,
          "352": 1.0054206848144531,
          "353": -2.396862030029297,
          "354": -0.4226006865501404,
          "355": -0.8761395812034607,
          "356": -1.0458645820617676,
          "357": -0.273881733417511,
          "358": -1.3277690410614014,
          "359": -2.6151247024536133,
          "360": -2.5335853099823,
          "361": -2.206806182861328,
          "362": -0.4584553837776184,
          "363": 1.5252563953399658,
          "364": -0.2722572088241577,
          "365": 0.016016846522688866,
          "366": -0.7118777632713318,
          "367": -1.8576066493988037,
          "368": 1.0644440650939941,
          "369": 0.9334328174591064,
          "370": 0.34881362318992615,
          "371": 2.352935552597046,
          "372": -0.8191038966178894,
          "373": -1.4346277713775635,
          "374": -2.358349323272705,
          "375": 1.5879360437393188,
          "376": -0.6320950388908386,
          "377": 1.3717257976531982,
          "378": -0.2365618199110031,
          "379": 0.8262461423873901,
          "380": -0.24200932681560516,
          "381": 2.106316328048706,
          "382": -0.9266016483306885,
          "383": 0.48577913641929626,
          "384": -3.270982265472412,
          "385": 0.7114588618278503,
          "386": -2.198911666870117,
          "387": -0.8528555035591125,
          "388": 0.3886236250400543,
          "389": 0.48653391003608704,
          "390": -1.9626246690750122,
          "391": 0.8458397388458252,
          "392": -3.5175766944885254,
          "393": -0.25972405076026917,
          "394": 1.9080350399017334,
          "395": -1.0151753425598145,
          "396": -0.00710949907079339,
          "397": -0.3796037435531616,
          "398": -0.9099268913269043,
          "399": 1.5790396928787231,
          "400": -0.24755914509296417,
          "401": -0.7287842631340027,
          "402": 2.0209312438964844,
          "403": 0.4466191530227661,
          "404": -2.070965051651001,
          "405": 0.7078276872634888,
          "406": -0.989393413066864,
          "407": -0.1859511435031891,
          "408": -0.9858426451683044,
          "409": -1.1587920188903809,
          "410": 0.8677257895469666,
          "411": 2.8169028759002686,
          "412": 0.6097690463066101,
          "413": 2.053450107574463,
          "414": -0.9938732981681824,
          "415": -0.5184623003005981,
          "416": -3.0160601139068604,
          "417": 0.5907045602798462,
          "418": 1.1042112112045288,
          "419": -0.9481477737426758,
          "420": 3.461148977279663,
          "421": 0.019328687340021133,
          "422": 1.1169764995574951,
          "423": -0.496788889169693,
          "424": -1.6568669080734253,
          "425": -0.12634381651878357,
          "426": -0.8921509981155396,
          "427": 1.1052695512771606,
          "428": 0.25760841369628906,
          "429": 0.7120823264122009,
          "430": 0.44275370240211487,
          "431": -2.6628618240356445,
          "432": -0.4425724446773529,
          "433": 0.015250379219651222,
          "434": -0.23176559805870056,
          "435": -0.11827722191810608,
          "436": -1.1249665021896362,
          "437": -1.6589199304580688,
          "438": 0.7570742964744568,
          "439": -0.9855619072914124,
          "440": 0.6478937864303589,
          "441": -0.5954490303993225,
          "442": -0.5465507507324219,
          "443": 0.9491750597953796,
          "444": 1.7760448455810547,
          "445": -0.004082042258232832,
          "446": -0.5339444279670715,
          "447": 1.3371095657348633,
          "448": 0.8709599375724792,
          "449": -3.8373825550079346,
          "450": 0.41994547843933105,
          "451": 0.12138469517230988,
          "452": 0.00425295066088438,
          "453": -2.9452288150787354,
          "454": -0.44539645314216614,
          "455": -0.8889253735542297,
          "456": 0.8626575469970703,
          "457": -0.5385109782218933,
          "458": 0.09539832174777985,
          "459": 0.7591422200202942,
          "460": -4.152320384979248,
          "461": -0.7174234986305237,
          "462": 0.4118821620941162,
          "463": -2.9259727001190186,
          "464": 0.6002609729766846,
          "465": -1.4868559837341309,
          "466": 0.1890491396188736,
          "467": -2.1818084716796875,
          "468": -3.133209228515625,
          "469": -1.047369122505188,
          "470": -2.098114013671875,
          "471": -0.3891690969467163,
          "472": -0.2517014741897583,
          "473": 1.03158700466156,
          "474": 0.2135033756494522,
          "475": 0.31068968772888184,
          "476": -0.20940089225769043,
          "477": 1.2551244497299194,
          "478": -2.0037994384765625,
          "479": 1.5330350399017334,
          "480": -0.11216182261705399,
          "481": 1.0703648328781128,
          "482": 0.6014130711555481,
          "483": -1.6623302698135376,
          "484": 0.7358527779579163,
          "485": -2.4821321964263916,
          "486": 0.00732814846560359,
          "487": 2.0974977016448975,
          "488": -1.5508934259414673,
          "489": 0.8080406188964844,
          "490": -0.5115054845809937,
          "491": 0.02814044989645481,
          "492": 1.3913027048110962,
          "493": -0.9932206273078918,
          "494": -0.7060520052909851,
          "495": 1.2190099954605103,
          "496": 0.24442535638809204,
          "497": 2.0081470012664795,
          "498": 1.0411337614059448,
          "499": -0.1479310691356659,
          "500": 1.397058367729187,
          "501": 1.0619285106658936,
          "502": 1.6397714614868164,
          "503": 0.7743726372718811,
          "504": -0.4789954721927643,
          "505": -1.1801248788833618,
          "506": -1.513191819190979,
          "507": 2.3719756603240967,
          "508": -0.7278828620910645,
          "509": 1.3965924978256226,
          "510": -1.7038768529891968,
          "511": 0.6302696466445923,
          "512": -0.6720727682113647,
          "513": -2.944995164871216,
          "514": -0.366997092962265,
          "515": -0.3577020466327667,
          "516": 0.6922330856323242,
          "517": 0.09666535258293152,
          "518": -1.2867144346237183,
          "519": 2.1848397254943848,
          "520": -2.0217161178588867,
          "521": 1.602806806564331,
          "522": 1.1866194009780884,
          "523": -0.2064002901315689,
          "524": 0.8259204030036926,
          "525": 0.9244096875190735,
          "526": -0.7939832210540771,
          "527": 0.6818574070930481,
          "528": -1.1766141653060913,
          "529": 1.1246050596237183,
          "530": 0.6556640863418579,
          "531": -0.8428974151611328,
          "532": -1.5960049629211426,
          "533": -1.8694218397140503,
          "534": 0.7497005462646484,
          "535": 1.6706856489181519,
          "536": 1.8403421640396118,
          "537": 0.8960395455360413,
          "538": -2.2374167442321777,
          "539": 1.27582848072052,
          "540": -0.12901146709918976,
          "541": -0.2078360915184021,
          "542": -1.0185678005218506,
          "543": -0.5011551380157471,
          "544": 1.4014431238174438,
          "545": 1.232273817062378,
          "546": -0.4157502353191376,
          "547": 0.015035898424685001,
          "548": 0.16738635301589966,
          "549": 1.2252731323242188,
          "550": 0.10507077723741531,
          "551": 0.19106259942054749,
          "552": -1.1668615341186523,
          "553": -2.2353880405426025,
          "554": 0.784109890460968,
          "555": -0.6211516857147217,
          "556": -1.5376447439193726,
          "557": -0.3513137996196747,
          "558": 0.49937543272972107,
          "559": -1.2385605573654175,
          "560": 0.7861202955245972,
          "561": -0.6799240708351135,
          "562": 0.17249326407909393,
          "563": -1.6223615407943726,
          "564": -0.27022603154182434,
          "565": 1.34359872341156,
          "566": -0.08982276916503906,
          "567": 2.3878769874572754,
          "568": -0.4006974399089813,
          "569": -1.7887909412384033,
          "570": 0.7662686109542847,
          "571": 0.731706976890564,
          "572": 0.8286335468292236,
          "573": -1.9778157472610474,
          "574": 3.084277391433716,
          "575": 0.5718352794647217,
          "576": 1.1537202596664429,
          "577": -0.16024701297283173,
          "578": 1.8374378681182861,
          "579": 1.3141491413116455,
          "580": 0.25802019238471985,
          "581": -1.7657145261764526,
          "582": -0.021481337025761604,
          "583": 0.45304393768310547,
          "584": -2.320885181427002,
          "585": 1.2325897216796875,
          "586": 1.565834879875183,
          "587": -2.1870622634887695,
          "588": -1.532192587852478,
          "589": -2.498116970062256,
          "590": 1.3872219324111938,
          "591": 0.110498808324337,
          "592": -1.3819431066513062,
          "593": 0.16433727741241455,
          "594": -0.17346704006195068,
          "595": -0.53680020570755,
          "596": -1.5172653198242188,
          "597": 0.20156797766685486,
          "598": -2.621765613555908,
          "599": 0.6638554334640503,
          "600": -0.18153545260429382,
          "601": 0.19415441155433655,
          "602": -2.404707670211792,
          "603": 1.0600310564041138,
          "604": 0.10451967269182205,
          "605": 0.2897438108921051,
          "606": -1.9632034301757812,
          "607": -0.23431089520454407,
          "608": -0.156686931848526,
          "609": -1.3849419355392456,
          "610": -0.5330815315246582,
          "611": -0.3972765803337097,
          "612": -0.5940119624137878,
          "613": 0.6490001082420349,
          "614": 0.899151623249054,
          "615": -1.0462175607681274,
          "616": -1.7346891164779663,
          "617": -0.10507521778345108,
          "618": 0.3246680796146393,
          "619": 0.48372554779052734
        }
      },
      "forgetHidden": {
        "rows": 20,
        "columns": 20,
        "weights": {
          "0": 1.271356463432312,
          "1": 0.29416748881340027,
          "2": -1.5173680782318115,
          "3": 0.5327974557876587,
          "4": -1.811635136604309,
          "5": 3.040945291519165,
          "6": -1.2611324787139893,
          "7": 1.530886173248291,
          "8": 0.12673208117485046,
          "9": -1.2427983283996582,
          "10": 1.7625354528427124,
          "11": 0.7741386294364929,
          "12": 1.2096126079559326,
          "13": 0.8854807615280151,
          "14": -0.759139358997345,
          "15": 1.5559232234954834,
          "16": -1.5349409580230713,
          "17": -0.18035295605659485,
          "18": 0.6604105830192566,
          "19": 2.2641208171844482,
          "20": -2.3180716037750244,
          "21": -3.1844334602355957,
          "22": 0.9565289616584778,
          "23": 0.4626905620098114,
          "24": -0.45895954966545105,
          "25": -0.08173616975545883,
          "26": 1.1844139099121094,
          "27": 0.4310661256313324,
          "28": 0.48992663621902466,
          "29": 0.9364434480667114,
          "30": 0.08804434537887573,
          "31": 0.04837349057197571,
          "32": -0.09447013586759567,
          "33": 0.21542301774024963,
          "34": 0.30025845766067505,
          "35": -1.7040282487869263,
          "36": -0.9283807277679443,
          "37": 1.5633314847946167,
          "38": 0.49115294218063354,
          "39": 2.1701934337615967,
          "40": 1.146714448928833,
          "41": 0.175767183303833,
          "42": -0.40612465143203735,
          "43": -1.053389310836792,
          "44": -0.6099852919578552,
          "45": -0.9842043519020081,
          "46": 0.09046420454978943,
          "47": 4.421499729156494,
          "48": -0.25527727603912354,
          "49": -0.0030272507574409246,
          "50": 2.530349016189575,
          "51": 1.4718587398529053,
          "52": -0.10592526197433472,
